public interface I0
{
    I0 M44(ref short arg0);
}

public class C0
{
    public sbyte F0;
    public byte F1;
    public bool F2;
    public C0(sbyte f0, byte f1, bool f2)
    {
        F0 = f0;
        F1 = f1;
        F2 = f2;
    }

    public sbyte M3(int arg0, C0 arg1)
    {
        arg1.F0 = (sbyte)(~this.F0);
        return 74;
    }

    public ushort M6(I0 arg0)
    {
        sbyte var0 = default(sbyte);
        bool var1 = default(bool);
        S1 var2 = default(S1);
        S1[] var4 = default(S1[]);
        sbyte[][] var6 = default(sbyte[][]);
        if (this.F2)
        {
            var0 = this.F0;
            new S0(0UL, 1, 214, 0, 1L, 184, -5304549519392818931L, 1554747766138870441UL, -10L).M7(Program.s_79);
        }
        else
        {
            Program.M67(new S1(2819, -7746388934121783930L, 1), (ushort)(1UL + this.F1), new C0[][]{new C0[]{new C0(-16, 1, false), new C0(-127, 193, true)}, new C0[]{new C0(-70, 8, true), new C0(115, 90, false), new C0(1, 0, true), new C0(1, 0, true)}, new C0[]{new C0(64, 36, true)}, new C0[]{new C0(110, 58, true), new C0(-62, 164, false), new C0(10, 1, true), new C0(-101, 32, false)}});
            var1 = Program.M24();
        }

        this.F1 = 203;
        if (Program.M68((ushort)Program.M80(ref Program.s_118.F2, new bool[]{false, true, true, true}, new S1(13402, -585490357864467221L, 0).M103())))
        {
            new C1(-31353, 1, 65535).M66(Program.M109(ref Program.s_92, ref Program.s_67), Program.s_46[0].F0++, new S1(1, 0L, -17734).M103().M85(new C1(-21040, 10, 37977), (Program.M73()-- / (uint)((uint)(Program.s_36.F0 * 0) | 1)) / (uint)(0U | 1))) = Program.s_24.F1--;
        }
        else
        {
            Program.s_122 = new ushort[]{27295, 57669, 1, 5382, 1, 1};
            var2 = Program.s_17;
            var2 = new S1(-8614, -2610099466976630994L, 32766);
            var2.M98(Program.M79(Program.s_20), var2.F0++, new C1(2, 49142, 430).M21().M34().M116(Program.s_118.F0++, 0, ref this.F0), Program.s_73.F0++, new C1(32767, 18046, 22926).M66(new ushort[]{0}, -6716, new C1(10, 65535, 30982))++ | Program.s_106.F2--);
            ref short var3 = ref var2.F0;
            Program.M77(ref Program.s_31.F0, ref Program.s_17, var2, 0UL, ref Program.s_45);
            var4 = new S1[]{new S1(2730, -4390916357043712599L, 11359), new S1(-32767, 1L, 0), new S1(-11603, 9223372036854775806L, 14823), new S1(9133, 2014505875889067640L, -24550), new S1(1, 9223372036854775806L, 0), new S1(1, 1L, 3129), new S1(-25122, 1954266108918473036L, -30581)};
            Program.s_128 = new C0(-1, 0, false);
            new C1(1, 39239, 0).M99(Program.s_25[0][0]) = (short)(~Program.s_28.F0);
        }

        for (int var5 = 0; var5 < 2; var5++)
        {
            {
                if (this.F2)
                {
                    Program.s_73.F5 = 254;
                    var6 = new sbyte[][]{new sbyte[]{32, 1, -2, 0, -10}, new sbyte[]{68, 1, -10, -1}, new sbyte[]{32, 123, 0}, new sbyte[]{-128, 1, 126, 123}};
                }
            }
        }

        {
            this.F2 = Program.M68(10);
            ref C0 var7 = ref Program.s_50;
            Program.s_67[0] = new S0(15173420472190583742UL, 1, 0, -43, 8485647390675279813L, 1, 8964251191179828883L, 1UL, 1L);
            Program.s_69 = this.F1;
            Program.M109(ref Program.s_38, ref Program.s_67);
        }

        return Program.s_106.F2;
    }

    public bool[][] M15()
    {
        uint var0 = default(uint);
        uint[][][][] var1 = default(uint[][][][]);
        ushort var2 = default(ushort);
        bool var3 = default(bool);
        var0 = 10U;
        var1 = new uint[][][][]{new uint[][][]{new uint[][]{new uint[]{2U}, new uint[]{2386412049U}, new uint[]{2834626716U}, new uint[]{3446882066U}}, new uint[][]{new uint[]{0U}, new uint[]{10U}, new uint[]{1219824273U}, new uint[]{1U}}, new uint[][]{new uint[]{2777703589U}, new uint[]{1278534571U}, new uint[]{1U}}, new uint[][]{new uint[]{364968233U}, new uint[]{58354704U}}, new uint[][]{new uint[]{1U}, new uint[]{0U}, new uint[]{0U}}}, new uint[][][]{new uint[][]{new uint[]{0U}}, new uint[][]{new uint[]{1334764361U}, new uint[]{147581349U}, new uint[]{1309832873U}, new uint[]{1U}, new uint[]{0U}, new uint[]{3810004571U}}, new uint[][]{new uint[]{2749373250U}, new uint[]{3001786620U}, new uint[]{961873753U}, new uint[]{2U}}, new uint[][]{new uint[]{1U}, new uint[]{459572296U}, new uint[]{2867926185U}, new uint[]{2449188802U}}}, new uint[][][]{new uint[][]{new uint[]{1U}, new uint[]{1U}, new uint[]{1771120624U}, new uint[]{0U}}, new uint[][]{new uint[]{3916585185U}, new uint[]{10U}, new uint[]{519298241U}, new uint[]{1829674828U}, new uint[]{1U}}, new uint[][]{new uint[]{3646577990U}, new uint[]{779453584U}, new uint[]{2U}, new uint[]{3573787341U}}}, new uint[][][]{new uint[][]{new uint[]{1076718222U}, new uint[]{3064506424U}, new uint[]{2U}, new uint[]{0U}, new uint[]{0U}, new uint[]{3772846711U}, new uint[]{0U}}, new uint[][]{new uint[]{4294967294U}, new uint[]{3155306331U}, new uint[]{2269769028U}, new uint[]{10U}}, new uint[][]{new uint[]{1718837456U}}, new uint[][]{new uint[]{10987590U}, new uint[]{4233197909U}, new uint[]{2286766719U}, new uint[]{4294967294U}, new uint[]{2219324063U}, new uint[]{1U}, new uint[]{3234766425U}}, new uint[][]{new uint[]{2200863409U}, new uint[]{1509748194U}, new uint[]{2U}}, new uint[][]{new uint[]{4294967295U}, new uint[]{3629287711U}}}};
        var2 = 65535;
        var3 = Program.s_2[0];
        if (var3)
        {
            this.F2 = this.F2;
        }
        else
        {
            ref short var4 = ref Program.s_1[0].F2;
            var0 = var1[0][0][0][0];
        }

        return new bool[][]{new bool[]{false, false}, new bool[]{false, false}, new bool[]{false, true, false}, new bool[]{false, false, false, false}};
    }

    public C0 M16(short arg0, long arg1)
    {
        S1[] var0 = default(S1[]);
        var0 = new S1[]{new S1(-14561, 5889688523210053171L, -3072), new S1(-9783, -4899826503515042342L, 0), new S1(-32768, -3324412429448948601L, -32767)};
        return this;
    }

    public ref S1 M34()
    {
        ulong var1 = default(ulong);
        uint var2 = default(uint);
        ushort var3 = default(ushort);
        for (int var0 = 0; var0 < 2; var0++)
        {
            {
                {
                    Program.s_9 &= this.F2;
                }
            }

            var1 = 18446744073709551614UL;
            var2 = 349304091U;
        }

        var3 = Program.s_5[0][0, 0, 0].F1;
        return ref Program.s_18;
    }

    public C0 M43(int arg0)
    {
        uint var0 = default(uint);
        new S0(0UL, 1, 39, -107, 3342914360151086373L, 112, -9223372036854775808L, 2577107182113856273UL, 1L).M44(ref Program.s_35[0]);
        var0 = Program.s_12;
        return new C0(-15, 218, true);
    }

    public int M52(sbyte arg0, uint arg1, sbyte[] arg2, ref uint arg3, ref C1[] arg4)
    {
        uint var0 = default(uint);
        ulong[] var1 = default(ulong[]);
        short var2 = default(short);
        S1 var3 = default(S1);
        var0 = 4294967295U;
        var1 = new ulong[]{17576536420138109601UL, 10489629195504734386UL, 42468460218580163UL, 15100719149699457725UL, 5712504227263182199UL, 12053170746624711883UL, 0UL};
        try
        {
            {
                arg4[0].F2 = (ushort)(arg4[0].F2 | arg4[0].F0);
            }
        }
        finally
        {
            this.F1 = this.F1;
            arg4[0].F2 = arg4[0].F2++;
            try
            {
                Program.s_44 = this.F2;
            }
            finally
            {
                arg4[0].F0 = arg4[0].F0;
            }

            arg2[0] = Program.s_6.F1;
            arg4 = arg4;
            {
                this.F2 = this.F2;
                var2 = arg4[0].F0;
                {
                    new S0(18446744073709551614UL, 1, 14, 2, -1L, 222, -5452536353291259235L, 14593216024145337575UL, 1L).M53();
                    Program.M56();
                    this.F1 = Program.s_16.F1;
                    arg0 = arg0;
                    arg4[0].F2 = Program.s_13;
                    Program.M58(Program.s_36);
                }
            }
        }

        Program.s_42 = new S0[]{new S0(15214185446548972204UL, -128, 10, -127, 3857390832174469580L, 254, -1689464654467055939L, 12715605715772476981UL, 1015623120700034704L), new S0(18446744073709551614UL, -103, 255, -59, -9223372036854775807L, 222, 1L, 0UL, -3584790969427555714L), new S0(12720867903401252430UL, 4, 132, 126, -9223372036854775808L, 83, -9223372036854775807L, 4455441907066615957UL, 1L), new S0(0UL, -102, 240, -98, 7408707486941982339L, 131, 1L, 1UL, 5837436750117524471L), new S0(721510468648073903UL, 126, 214, -92, 0L, 1, -1L, 7591767173606511551UL, 6791907607492481495L), new S0(18446744073709551615UL, -127, 9, 0, 0L, 106, 0L, 8766858427287236774UL, 4114606343792172623L)};
        Program.M56();
        var3 = Program.s_42[0].M55();
        return -1984154809;
    }

    public S1 M61(ref long arg0, I0[, ] arg1)
    {
        bool var0 = default(bool);
        S1 var2 = default(S1);
        if (this.F2)
        {
            Program.s_54 = new uint[]{2899608444U, 4294967294U, 4294967294U, 10U, 3415434709U, 10U, 3748880625U, 3054616304U, 4294967295U};
        }
        else
        {
            var0 = this.F2;
        }

        ref C1 var1 = ref Program.s_32[0];
        Program.s_41 = new sbyte[][][,, ]{new sbyte[][,, ]{new sbyte[,, ]{{{50, -10, 0}, {-41, -128, 1}, {-128, 1, 122}, {1, -57, 1}}}}};
        if (-32767 != var1.F2)
        {
            var1.F2 = var1.F1--;
            Program.s_55 = arg1[0, 0];
        }

        Program.M62(Program.s_54[0]++, new S0(14434278683344847921UL, -1, 2, 0, 10L, 144, 0L, 14053791396555390992UL, -2774190459497323353L), this.F0, ref Program.s_38, arg1[0, 0], new I0[]{new S0(10UL, 2, 0, 1, -4907183227587062054L, 82, 1L, 13675527335157147262UL, -6206220362234724388L), new S0(3544239794054892100UL, -128, 26, -98, 1L, 1, 3085144657007281553L, 11682739259476887730UL, 9223372036854775806L), new S0(0UL, -110, 8, 126, -7654863778975084550L, 1, -2L, 13143075593618976349UL, 5672920190738661823L), new S0(4315954345943136420UL, -10, 232, 0, 0L, 138, 9223372036854775806L, 15492376715622517055UL, -4577554800687876888L), new S0(0UL, -128, 2, 2, -2755227501603428088L, 154, -1094867784063821502L, 6853921301877474162UL, 9223372036854775806L), new S0(0UL, 10, 63, 2, -9127248999998840803L, 1, 4504925782773049562L, 1UL, 9223372036854775806L), new S0(7636149287057462058UL, 10, 254, 11, -7400817372521423566L, 186, 10L, 17862790380185008610UL, 9223372036854775807L), new S0(18446744073709551614UL, 75, 1, -31, -9223372036854775808L, 2, 1301423013412697257L, 6357911223519245271UL, -9223372036854775808L)});
        Program.M62(3343545398U, arg1[0, 0], this.F0, ref Program.s_38, arg1[0, 0], new I0[]{new S0(5330586095925213823UL, 1, 1, 54, 0L, 1, 5014285392908318455L, 1UL, 1L), new S0(1UL, 108, 255, 0, 9025425982237681805L, 113, -9223372036854775807L, 15829537249636084101UL, 1105754772120105822L), new S0(18446744073709551615UL, 10, 67, -128, -4454945284464983969L, 4, 9223372036854775806L, 0UL, 35062524679648032L), new S0(6710460801903910513UL, 1, 125, 0, 1502588428120438198L, 1, 6342763500111052263L, 18446744073709551614UL, 9223372036854775807L), new S0(1UL, -69, 215, -118, 2L, 0, -1L, 18446744073709551614UL, 9223372036854775806L), new S0(7918591515438807517UL, 126, 254, -127, -486701940718427692L, 169, -8897017896364248342L, 5347965679947699085UL, 0L), new S0(3541358380578549495UL, 72, 201, 2, -8428857832140651980L, 54, -5173402498760326898L, 1UL, 1L), new S0(1UL, -53, 1, 1, 5485463244890540529L, 154, 7768368079898386759L, 1UL, 2406778118519900663L)});
        if (1 == arg0)
        {
            var2 = Program.s_1[0];
            var2.F1 = arg0;
            arg1 = arg1;
            ref I0 var3 = ref Program.s_39;
        }

        return new S1(32766, -2L, -32767);
    }

    public S0[] M72(short arg0)
    {
        sbyte var1 = default(sbyte);
        byte var2 = default(byte);
        ulong var3 = default(ulong);
        byte[] var4 = default(byte[]);
        short var5 = default(short);
        uint var6 = default(uint);
        short var7 = default(short);
        C1[][] var8 = default(C1[][]);
        uint var9 = default(uint);
        int[] var10 = default(int[]);
        C0 var12 = default(C0);
        for (int var0 = 0; var0 < 2; var0++)
        {
            arg0 = arg0;
            {
                {
                    if (Program.s_16.F2)
                    {
                        Program.s_60 = (short)(-Program.s_18.F2);
                        arg0 = Program.s_8[0];
                    }

                    var1 = Program.s_16.F0;
                    Program.M73();
                    var2 = this.F1;
                    Program.M73();
                    Program.s_50.F2 = this.F2;
                    var2 *= 94;
                    Program.M73();
                    {
                        var1 = var1;
                        var3 = Program.s_36.F7;
                    }
                }
            }

            var4 = Program.s_45;
            this.F1 = 148;
            this.F1 ^= this.F1;
        }

        var5 = arg0;
        var6 = 2U;
        Program.M73();
        if (this.F2)
        {
            var7 = 10;
            {
                if (this.F2)
                {
                    var6 = (uint)Program.M73();
                    var5 = Program.s_18.F0;
                    var8 = new C1[][]{new C1[]{new C1(-11416, 0, 40930), new C1(-32767, 65535, 65534)}, new C1[]{new C1(-32767, 65535, 5990)}, new C1[]{new C1(-32767, 11823, 65534)}, new C1[]{new C1(0, 65534, 64254)}, new C1[]{new C1(-10, 55842, 0)}, new C1[]{new C1(4161, 0, 65534), new C1(-2, 1, 24567)}};
                    var8[0][0] = Program.s_53;
                }
                else
                {
                    var9 = 1U;
                }

                Program.M73();
                Program.M73();
            }

            new S0(0UL, -127, 10, 72, 0L, 0, 7607382457509562155L, 1697402099653869702UL, 1L).M74(ref Program.s_27, Program.s_42[0].F8++);
            Program.s_1[0].F1 = Program.s_37;
            var10 = new int[]{900310696, -1, 2147483646, 0, -2147483647, -1452276627};
            if (this.F2)
            {
                for (int var11 = 0; var11 < 2; var11++)
                {
                    arg0 = (short)(this.F1 % (sbyte)(this.F0 | 1));
                    var6 = var6++;
                }
            }
            else
            {
                this.F1 = this.F1;
            }
        }
        else
        {
            var6 = ~Program.s_30;
        }

        var12 = this;
        --this.F0;
        return Program.s_42;
    }

    public S0 M76(ref ushort arg0)
    {
        return default(S0);
    }

    public int M88()
    {
        long[] var0 = default(long[]);
        int var1 = default(int);
        int var2 = default(int);
        this.F2 = this.F2;
        this.F2 = true;
        this.F0 &= Program.s_16.F0--;
        Program.s_88 = new C1[]{new C1(2, 0, 1), new C1(1, 1, 41647), new C1(1, 13247, 1), new C1(1, 0, 0), new C1(-23722, 1, 65534), new C1(-2, 65534, 1), new C1(0, 7266, 1), new C1(9785, 0, 30696)};
        Program.s_64 = this.F1;
        --Program.s_28.F1;
        var0 = new long[]{4290971908168571097L, 7018756022454146881L, 9223372036854775807L, 9223372036854775806L, 9223372036854775806L, 1466459919429337633L};
        this.F2 = true;
        var1 = Program.s_38;
        if (!this.F2)
        {
            Program.s_42[0].F0 = 15924240858610018368UL;
        }

        var0[0] -= -1L;
        {
            var2 = Program.s_6.F5 >> Program.s_50.F0++;
        }

        if (this.F2)
        {
            var0 = new long[]{1L, -4000862842014554451L, 1L, 1L};
        }
        else
        {
            Program.M89(0L, Program.s_83);
            {
                Program.s_21[0][0, 0].F2 |= true;
            }
        }

        return var1;
    }

    public I0 M94()
    {
        S0 var1 = default(S0);
        S1 var2 = default(S1);
        short var4 = default(short);
        S1[] var5 = default(S1[]);
        uint var6 = default(uint);
        short var7 = default(short);
        long var8 = default(long);
        S1 var9 = default(S1);
        uint var10 = default(uint);
        S0 var11 = default(S0);
        uint var12 = default(uint);
        int var13 = default(int);
        S0 var14 = default(S0);
        short var15 = default(short);
        S0 var16 = default(S0);
        C0[] var17 = default(C0[]);
        C1 var18 = default(C1);
        long var19 = default(long);
        for (int var0 = 0; var0 < 2; var0++)
        {
            var1 = new S0(~Program.s_6.F0--, this.F0, Program.s_42[0].F5, 0, Program.s_18.F1 * Program.s_17.F1++, 0, Program.s_37, 11245307702682533370UL, Program.s_36.F6);
            var1.F4++;
        }

        if (this.F2)
        {
            this.F2 = false;
            var2 = new S1(0, -9223372036854775807L, 5927);
            var2.F2 = 27532;
            this.F0 = Program.s_36.F1;
            {
                var2.F0 = 10252;
            }

            for (int var3 = 0; var3 < 2; var3++)
            {
                Program.s_39 = new S0(18446744073709551614UL, 15, 192, 75, -5938994016038102273L, 1, 2171655967396636522L, 1UL, 0L);
                Program.s_77 = 0UL;
            }

            if (this.F2)
            {
                Program.s_6.F2 = this.F1;
                Program.s_5[0][0, 0, 0].F2 = 65534;
                Program.s_31.F2 = Program.s_86.F2;
                var4 = var2.F2;
                var2.F1 = var2.F1;
                Program.M95(this.F1, new int[]{-1747702821, 0, 0, 1723374459, 0, 1094713524, -2147483647});
                this.F0 = 2;
                var5 = new S1[]{new S1(-20167, 1L, 32766), new S1(-31878, 8915688073404036408L, -320), new S1(10, 0L, 2), new S1(-8627, 1L, 12097), new S1(1, -9223372036854775807L, 2), new S1(-1, 1L, -1)};
                var6 = (uint)(var4 % (uint)((uint)(-363440131 ^ Program.s_19++) | 1));
                var7 = var2.F0;
                Program.s_53 = Program.s_46[0];
                Program.M95(76, new int[]{1932698825, -2147483648, 542659323, 926840848});
                {
                    Program.s_9 = false;
                }

                this.F2 = true;
                var8 = -9223372036854775808L;
            }
            else
            {
                var9 = var2;
            }

            var2.F1 = var2.F1;
            var10 = Program.s_12++;
        }

        {
            this.F2 = this.F2;
            var11 = new S0(~Program.s_36.F0++, this.F0, this.F1, this.F0, Program.s_15--, Program.s_42[0].F5, -5358516069585616327L, (ulong)(Program.s_42[0].F2-- ^ this.F1), ~~(-Program.s_79.F1));
            var11 = var11;
            Program.M95(var11.F5, new int[]{2002214020, 1, 1929646914, 369259015, 1});
            --var11.F7;
            {
                {
                    var11.F3 = 127;
                }

                Program.M95(var11.F2, new int[]{0});
                var12 = 2931798315U;
                var11.F7 = var11.F7++;
                var13 = Program.s_74;
                var14 = var11;
                var11 = var11;
                var15 = Program.s_28.F2;
            }

            var11.F2 = this.F1--;
            var16 = new S0(1UL, 0, 60, 126, 1L, 0, -9131202047196326218L, 13247408021469394903UL, 8399496038741764334L);
            this.F1 = 0;
        }

        this.F2 = Program.s_58 != (ushort)(-Program.s_19--);
        if (this.F2)
        {
            this.F2 = this.F2;
            {
                var17 = new C0[]{new C0(76, 1, false), new C0(-127, 255, true), new C0(1, 10, false), new C0(126, 0, true), new C0(-41, 0, false), new C0(-113, 174, false), new C0(-1, 253, false), new C0(0, 251, false)};
                var17[0].F1 = var17[0].F1;
                this.F0 = (sbyte)(+var17[0].F0);
            }
        }
        else
        {
            this.F2 = false;
            Program.M95(207, new int[]{-2147483647, 260481869, -2147483647, 0, -2147483647, 1390480096, 0, -2147483648});
        }

        {
            this.F2 = Program.s_22;
            var18 = new C1(32766, 64789, 2595);
        }

        this.F0 += (sbyte)(0 << this.F1);
        var19 = Program.s_42[0].F6;
        Program.M95(214, new int[]{-10, -1, -1826808928, -2147483648});
        return new S0(0UL, 2, 71, -128, 4974571126677706220L, 1, -6209408481681856751L, 17658249315494137245UL, 7177583483929786331L);
    }

    public sbyte M105(sbyte arg0, S1[] arg1, byte arg2)
    {
        for (int var0 = 0; var0 < 2; var0++)
        {
            if (this.F2)
            {
                Program.s_94 = Program.s_84.F2;
                Program.s_57[0] = 0;
            }
        }

        return arg0;
    }

    public S0 M108(uint arg0, uint arg1)
    {
        bool var0 = default(bool);
        C1 var3 = default(C1);
        byte var5 = default(byte);
        sbyte var6 = default(sbyte);
        long var7 = default(long);
        C1[] var8 = default(C1[]);
        int var9 = default(int);
        Program.M109(ref Program.s_74, ref Program.s_67);
        if (this.F2)
        {
            {
                Program.s_85 = (ushort)(~Program.s_53.F2);
                Program.s_99 = Program.s_99;
                Program.M109(ref Program.s_38, ref Program.s_67);
            }

            var0 = this.F2;
            if (var0)
            {
                Program.M109(ref Program.s_74, ref Program.s_67);
                ref ulong var1 = ref Program.s_42[0].F7;
            }

            Program.M109(ref Program.s_76, ref Program.s_67);
            var0 = this.F2;
            Program.M109(ref Program.s_76, ref Program.s_67);
            arg1 = Program.s_12;
        }
        else
        {
            {
                try
                {
                    this.F1 = (byte)(126 << Program.s_57[0]);
                    for (int var2 = 0; var2 < 2; var2++)
                    {
                        this.F1 = 254;
                    }

                    Program.M109(ref Program.s_38, ref Program.s_67);
                    arg0 = arg1;
                    if (Program.s_2[0])
                    {
                        var3 = Program.s_88[0];
                        var3 = var3;
                        Program.M109(ref Program.s_58, ref Program.s_67);
                        var3.F2 = 48696;
                        ref short var4 = ref var3.F0;
                    }
                    else
                    {
                        this.F1 = (byte)(~this.F1);
                        Program.M109(ref Program.s_92, ref Program.s_67);
                    }

                    arg1 = arg0;
                }
                finally
                {
                    var5 = this.F1;
                    if (Program.M110(ref arg1))
                    {
                        var5 = this.F1;
                        var6 = this.F0;
                        arg1 >>= (short)(-31724 & this.F1) % (int)(-2147483648 | 1);
                        arg0 = 1006115833U;
                        var6 = Program.s_6.F1;
                        var7 = 9223372036854775806L;
                        if (this.F2)
                        {
                            arg1 = arg1;
                        }

                        var8 = new C1[]{new C1(32767, 17655, 21116), new C1(0, 62676, 58404), new C1(27685, 65534, 65534), new C1(1, 1, 65534), new C1(6215, 0, 57395), new C1(26392, 45102, 52786)};
                        var9 = (int)(11457289863137353600UL >> (short)(~var8[0].F0));
                        var8[0].F2 = var8[0].F2;
                    }
                }
            }
        }

        return Program.M111(0, new ulong[]{1UL, 4761058664259163893UL, 1UL, 12031371889732686595UL, 12423723927031059617UL, 1UL, 16477171919598878143UL, 7222900295557127465UL, 6735527426156785400UL}, this.F2, Program.s_53, ref Program.s_95, new bool[]{false}, Program.s_51);
    }

    public S1[] M112(ref ushort[][] arg0, bool arg1, ref S0[, ] arg2)
    {
        C0 var0 = default(C0);
        I0[] var1 = default(I0[]);
        ushort var2 = default(ushort);
        int var3 = default(int);
        this.F1 = this.F1;
        if (!(Program.s_28.F2 == Program.s_75[0, 0, 0]))
        {
            if (arg1)
            {
                {
                    var0 = this;
                    var1 = Program.s_67;
                }

                Program.s_84.F0 = Program.s_73.F3;
                arg2[0, 0].F4 = arg2[0, 0].F4--;
                var2 = Program.s_46[0].F1;
            }

            arg2[0, 0].F0 = 17781142413093092259UL;
        }

        {
            var3 = 982552562;
            {
                Program.M113(ref arg0[0][0], this);
                {
                    arg2 = ref arg2;
                }

                arg0[0][0] = (ushort)Program.M113(ref arg0[0][0], this);
                arg2[0, 0].F4 = (long)Program.M113(ref arg0[0][0], this);
            }

            Program.M114(ref this.F2, new I0[]{new S0(0UL, 42, 50, 127, -3368125158820498508L, 21, 0L, 3024438599921333134UL, -4286163123182844648L), new S0(0UL, 1, 0, -34, 6361197265841675876L, 168, 0L, 0UL, 2L), new S0(0UL, 1, 64, 0, 0L, 216, -6511898739851598422L, 0UL, -1L)}, (sbyte)(~Program.s_7), new uint[, ]{{3693531144U, 1U, 0U, 4294967295U, 0U, 0U}, {0U, 3046126297U, 1U, 4294967294U, 1U, 1513993098U}, {2598399107U, 1U, 4294967295U, 1U, 3398935191U, 4294967295U}, {1487567240U, 1U, 1858636727U, 2044166757U, 0U, 3340657644U}}, 0);
        }

        return new S1[]{new S1(28738, 3950710755092725258L, 30942), new S1(-29664, 1L, -16705), new S1(-27411, 7662316038023772099L, 2330), new S1(1, 192879573362824474L, -10), new S1(-9964, 1L, -12337), new S1(0, 4492542763766687391L, -27395), new S1(16392, -5218358533292656038L, 13702), new S1(15878, 4315202414250973302L, -10793), new S1(-32250, -2248014800265210239L, 0), new S1(-25649, 896145200216775710L, 0)};
    }
}

public struct S0 : I0
{
    public ulong F0;
    public sbyte F1;
    public byte F2;
    public sbyte F3;
    public long F4;
    public byte F5;
    public long F6;
    public ulong F7;
    public long F8;
    public S0(ulong f0, sbyte f1, byte f2, sbyte f3, long f4, byte f5, long f6, ulong f7, long f8)
    {
        F0 = f0;
        F1 = f1;
        F2 = f2;
        F3 = f3;
        F4 = f4;
        F5 = f5;
        F6 = f6;
        F7 = f7;
        F8 = f8;
    }

    public long M7(S1 arg0)
    {
        return default(long);
    }

    public long[] M27(ushort arg0, bool arg1, S1 arg2, C1[] arg3, uint arg4, ref long[] arg5, byte arg6)
    {
        S1 var1 = default(S1);
        sbyte var2 = default(sbyte);
        byte[] var3 = default(byte[]);
        bool var4 = default(bool);
        C1 var5 = default(C1);
        ushort var7 = default(ushort);
        C1 var8 = default(C1);
        S1 var9 = default(S1);
        bool[] var10 = default(bool[]);
        ushort var11 = default(ushort);
        C0 var12 = default(C0);
        int var13 = default(int);
        I0 var14 = default(I0);
        S0 var15 = default(S0);
        C0 var16 = default(C0);
        for (int var0 = 0; var0 < 2; var0++)
        {
            var1 = arg2;
            {
                try
                {
                    arg5[0] = 1798327864495113260L;
                }
                finally
                {
                    if (!arg1)
                    {
                        var2 = this.F3;
                        arg2.F1 = arg5[0];
                        var3 = new byte[]{0, 1, 132, 31, 2, 0, 0};
                    }
                    else
                    {
                        this.F3 = (sbyte)(~this.F1);
                        var4 = arg1;
                        Program.s_19 = arg3[0].F1++;
                        arg2 = arg2;
                        Program.s_1[0] = Program.s_18;
                        arg3[0].M28();
                        var1 = new S1(1, 5158514456529994885L, 24725);
                        if (arg1)
                        {
                            new C0(-128, 0, false).M34() = new S1(0, -7896020701766610495L, -2);
                            arg0 = arg3[0].F1;
                            var5 = arg3[0];
                        }

                        try
                        {
                            this.F5 = (byte)Program.M35(ref this.F2);
                            new C0(-2, 172, false).M34() = Program.s_28;
                            ref byte var6 = ref this.F2;
                            var7 = arg3[0].F2;
                            Program.M40(Program.s_32[0].F0);
                        }
                        finally
                        {
                            var8 = arg3[0];
                            var9 = var1;
                        }

                        Program.s_21[0][0, 0].F0 += this.F3;
                        Program.s_27[0].F2 = arg1;
                    }

                    var10 = new bool[]{true, false, false, true, false, false, true, true, true, false};
                    var11 = arg0;
                    var11 = Program.s_19;
                }

                var12 = Program.s_27[0];
            }
        }

        if (arg1)
        {
            Program.s_36 = new S0(1UL, -1, 122, 126, 1L, 1, 2L, 11121547783260682408UL, -1496147350332932508L);
            arg3[0].F0 = arg2.F0--;
            if (arg1)
            {
                Program.s_27[0].F0 = this.F1++;
            }

            var13 = 514644322;
            if (arg1)
            {
                Program.M33();
                Program.s_4 = Program.s_36.F0;
                var14 = this;
                var15 = this;
                new S1(0, 0L, 22889).M37(ref arg3[0], Program.s_36.F4);
            }

            new C0(0, 1, false).M34() = Program.s_28;
        }

        arg2.M37(ref arg3[0], this.F4);
        Program.s_23 = new C0(1, 10, true);
        var16 = Program.s_16.M43(0);
        new C0(1, 114, false).M34() = new S1(10, 0L, 0);
        return new long[]{1L, -1706405095976566969L, 0L, -2165899968144586854L, 1L, 1L};
    }

    public short M36(long arg0, ref uint[][] arg1, I0 arg2)
    {
        this.F5 = new S1(10, 5054604445126639016L, 0).M37(ref Program.s_5[0][0, 0, 0], this.F4);
        new S0(5718224841816132531UL, -6, 1, -127, -6762926671395305686L, 140, 7700132951987558511L, 2669718628277691026UL, -2369349753610740008L).M38(new ulong[]{1UL, 18446744073709551615UL}, 2);
        return Program.s_18.F2;
    }

    public ushort M38(ulong[] arg0, ushort arg1)
    {
        uint[] var3 = default(uint[]);
        try
        {
            ref long var0 = ref this.F8;
        }
        finally
        {
            if (Program.s_22)
            {
                ref sbyte var1 = ref Program.s_7;
            }
            else
            {
                Program.s_23 = Program.s_16;
            }
        }

        this.F2 = Program.s_16.F1;
        this.F0 = this.F0;
        for (int var2 = 0; var2 < 2; var2++)
        {
            if (Program.s_22)
            {
                this.F2 = this.F5;
                Program.s_5[0][0, 0, 0] = new C1(32766, 54282, 52473);
                Program.M39();
            }
            else
            {
                if (!Program.s_23.F2)
                {
                    this.F4 = Program.s_6.F6++;
                    try
                    {
                        var3 = new uint[]{1U, 449983641U, 1609267378U, 0U, 1686721275U, 990726639U, 4018483876U, 0U, 4294967295U};
                    }
                    finally
                    {
                        this.F2 = this.F5;
                        this.F3 = Program.s_16.F0;
                    }

                    return arg1;
                }

                this.F8 = this.F6;
                ref S0 var4 = ref this;
            }
        }

        this.F8 = this.F4;
        this.F3 = this.F1;
        this.F3 = (sbyte)(Program.s_6.F6 >> (byte)(18000170519460592326UL & arg0[0]));
        this.F7 = ~Program.s_6.F0;
        this = new S0(1UL, -120, 0, 10, -9223372036854775808L, 108, 1L, 1UL, 2538939456161972969L);
        return 11936;
    }

    public I0 M44(ref short arg0)
    {
        new S1(-20181, 4945753991742763672L, 16441).M45();
        this.F5 = 0;
        {
            this.F6 = (long)(184 + arg0--);
        }

        return this;
    }

    public short M53()
    {
        ushort[] var0 = default(ushort[]);
        sbyte var2 = default(sbyte);
        C1 var3 = default(C1);
        {
            var0 = new ushort[]{1, 0, 34207, 30317, 53115, 1, 1};
            this.F4 = ~this.F6;
            Program.M54(ref this.F2, Program.s_18, Program.s_46[0].F2, ref this);
            {
                this.F8 = (long)Program.M56();
                Program.M54(ref this.F5, new S1(-31243, 1L, -7951), Program.M59(), ref this);
            }

            if (Program.s_22)
            {
                for (int var1 = 0; var1 < 2; var1++)
                {
                    this.F4 = this.F4;
                }

                var0[0] = Program.M59();
            }
        }

        {
            this.F8 = -7042109289306699078L;
            var2 = (sbyte)Program.M59();
            var3 = Program.s_5[0][0, 0, 0];
        }

        this.F8 >>= -1;
        return 1;
    }

    public S1 M55()
    {
        S0[, ] var0 = default(S0[, ]);
        Program.M56();
        var0 = new S0[, ]{{new S0(893060457768719818UL, -21, 110, -5, 9223372036854775806L, 1, -3045740391901813445L, 0UL, 1L), new S0(9591503660606568125UL, 75, 5, 1, -6783040196720167019L, 29, -9223372036854775807L, 9040364023587819021UL, -2L), new S0(1UL, -2, 255, 26, -9223372036854775807L, 49, -9223372036854775807L, 18446744073709551614UL, 2633997794563652835L), new S0(18446744073709551615UL, 1, 0, -128, -3750683363512243095L, 134, -4177486285698028211L, 2665652529389053269UL, 9223372036854775806L), new S0(1UL, 127, 35, -38, -4133489671242008947L, 0, 5458402020457096765L, 10556320955215533170UL, -9223372036854775807L), new S0(18446744073709551615UL, 0, 207, 0, 0L, 25, 0L, 12384656560951833903UL, 10L), new S0(2490658750298516995UL, -87, 94, 127, -1L, 255, -4092262429349582600L, 14484754788787678314UL, -6979206794368623232L), new S0(18446744073709551614UL, 97, 166, -67, 1L, 1, -9223372036854775807L, 14581269033440123784UL, 9223372036854775806L)}, {new S0(1478736953534625980UL, 2, 192, 2, -1944360884191409898L, 153, 1702768067129980412L, 2UL, 5797052773193763911L), new S0(17454536429092134289UL, 0, 254, 126, 4331086384726504189L, 2, -8543903572162182197L, 18446744073709551614UL, -2L), new S0(17413091680920937785UL, 0, 1, 0, -7128346711723922835L, 124, 8058621471405667747L, 2948503682458514509UL, -539513981908134127L), new S0(2929865643238673655UL, 1, 239, 13, 1472841173550754645L, 254, -9223372036854775807L, 7691910424721771026UL, -6978068083447630009L), new S0(18446744073709551614UL, 127, 90, 10, -5354340313852806505L, 1, 7262474566222478112L, 18446744073709551614UL, 1714098873338501254L), new S0(7441012686120742650UL, 0, 173, -79, -7755179537850421579L, 16, 1363610667743942272L, 0UL, 5253575842432072299L), new S0(1963453754246820007UL, 1, 0, 64, 5362876743687973684L, 83, 4396010720767412790L, 2910553388619411528UL, 10L), new S0(4966566786030137427UL, 69, 0, -2, -7220444204768312382L, 254, 0L, 4781278411072187575UL, 1903581745599070104L)}};
        Program.M56();
        return new S1(23648, 2L, -8752);
    }

    public short M74(ref C0[] arg0, long arg1)
    {
        long var0 = default(long);
        var0 = -10L;
        Program.s_18 = new S1(1, 908405631824207838L, -4941);
        {
            arg0[0].F1 = arg0[0].F1;
            arg1 = -1198725193290149068L;
        }

        return Program.s_17.F0;
    }

    public int M78()
    {
        Program.M79(Program.s_32[0].F2--);
        Program.s_20 = Program.s_26[0]++;
        return ~Program.s_58;
    }

    public ref bool M82(int arg0, sbyte[] arg1, ref uint arg2)
    {
        sbyte[] var0 = default(sbyte[]);
        I0[][] var1 = default(I0[][]);
        this.F1 = -1;
        if (Program.s_50.F2)
        {
            Program.s_85 = 34474;
            var0 = arg1;
            Program.s_73.M83();
            arg2 = ref arg2;
            Program.s_73.F2 = this.F2++;
            arg1[0] = (sbyte)Program.M84(this.F2, (uint)Program.M84(Program.s_71, 3367715445U, new S0(1UL, 127, 254, 72, 3092562237219758036L, 1, 0L, 18446744073709551614UL, -9223372036854775807L), false), Program.s_56, Program.s_29[0, 0, 0]);
        }

        this.F2 = (byte)Program.M84(Program.s_16.F1, 10U, this, false);
        var1 = new I0[][]{new I0[]{new S0(16399679222752372939UL, 0, 254, 52, 3219253711066202685L, 192, -9223372036854775808L, 11658253975487453805UL, -8137898604637192578L), new S0(4895100497557508298UL, -1, 1, 1, 5339190293527103090L, 73, 2466608783413854563L, 11486970734854884610UL, -5493663918717578163L), new S0(0UL, -1, 0, -84, -9223372036854775808L, 1, -8232093872461246504L, 12716805820705795752UL, -5115191854349325108L), new S0(2345579907323305181UL, 1, 254, 0, 4481066018196572343L, 0, -9223372036854775808L, 2UL, 2L), new S0(0UL, -127, 1, -127, 4932240077074042840L, 101, 4670315774072011247L, 2918293865772524263UL, -6804559768302264771L), new S0(2UL, 0, 0, 0, 0L, 82, -641181692565866514L, 1UL, -7790262806160355232L), new S0(12238034761060741746UL, 0, 26, 127, -3437149578134485089L, 0, 0L, 12949614268504585716UL, 4777454893489002109L), new S0(16984805668821236120UL, 0, 229, 36, -2860395520650136506L, 223, 1L, 0UL, -6482282023677004336L)}, new I0[]{new S0(0UL, -12, 188, 0, -5999292317902502508L, 0, 0L, 7812708031795715635UL, -1066022635902553084L), new S0(5858507988332731655UL, 1, 2, 0, -1789061455693185623L, 216, -9223372036854775807L, 1UL, 0L), new S0(0UL, -127, 157, -125, -9223372036854775808L, 254, -2L, 10155738902636432584UL, -8072497908144607807L), new S0(16771914433944968546UL, 21, 0, -1, -10L, 2, 5780943914033857118L, 0UL, 4657917177528692136L), new S0(1UL, 95, 163, 41, -8309807219821721235L, 42, 8594669552296924750L, 2113379642110405704UL, -2L), new S0(1UL, 126, 123, -2, 9223372036854775806L, 128, 4711858332254783L, 18446744073709551615UL, -10L), new S0(1UL, 1, 1, 127, 9223372036854775806L, 255, -2L, 1UL, -8879869641980210192L), new S0(0UL, -127, 21, -128, 1397260213406403982L, 251, -8557077027074635216L, 1221046710394364043UL, -3480355274030187934L), new S0(13246363301404486854UL, 88, 1, -14, 0L, 205, -4496405785996180133L, 14147120731708961928UL, -2115602255655688026L), new S0(0UL, -1, 84, 95, 0L, 1, -2L, 0UL, 262737829956226058L)}, new I0[]{new S0(0UL, -1, 0, 36, 10L, 1, 9223372036854775807L, 311914113880886113UL, 5469866945715280121L), new S0(8715939970649692811UL, -51, 141, 1, -7912575890779612193L, 112, -6321678356419074909L, 0UL, -2L), new S0(0UL, -96, 203, 107, 1720289280353031254L, 0, -9223372036854775808L, 18446744073709551614UL, 7942336232847815957L), new S0(1UL, 0, 1, -10, -853871639447426691L, 113, 4127021939594624278L, 2178685056824659383UL, 2L), new S0(0UL, -96, 254, 1, -9223372036854775807L, 229, 0L, 18446744073709551615UL, -7893288025180635603L)}, new I0[]{new S0(1UL, 39, 255, 127, -8256655923982884431L, 0, 1L, 0UL, 9223372036854775807L), new S0(16251205818676303756UL, 1, 0, 126, -6599667822527118253L, 13, -710938562065021614L, 6251196057445503356UL, 1L), new S0(18446744073709551615UL, 74, 254, 2, 9223372036854775806L, 10, -9223372036854775808L, 11848068236564649654UL, 1L), new S0(1UL, 10, 121, -104, -9223372036854775808L, 1, 8159590600306783300L, 7491696523364798228UL, 0L), new S0(17237523210807524493UL, -42, 254, 74, -10L, 193, -5064729848753387924L, 6426845538430391996UL, 0L), new S0(17088897612967998872UL, 42, 220, -128, 23986776135178225L, 110, 10L, 15278301437214837806UL, 8702290717030005483L)}, new I0[]{new S0(9214514548331398506UL, 10, 180, 1, 3355737930103161487L, 35, -5899266603448880069L, 18446744073709551614UL, 7363254145561245045L), new S0(1UL, 1, 181, -68, -303219147600419033L, 255, 0L, 10167097614342004947UL, -4606660868820134243L), new S0(16505254637700636471UL, 115, 227, 78, -9223372036854775807L, 1, 9223372036854775806L, 18446744073709551615UL, 5301087028210372714L), new S0(1UL, 29, 200, 99, -5727182998704383352L, 55, -9223372036854775808L, 0UL, 2173142006200247481L), new S0(1UL, 126, 0, 0, 9223372036854775807L, 255, 6684316721347747931L, 0UL, -413365816447717342L), new S0(15671385020025175946UL, 62, 1, 126, 6113312675321747633L, 164, 1L, 0UL, 1L), new S0(13080757390047992185UL, -125, 129, 0, 1L, 0, 7937487329118988768L, 16950090942961934038UL, -2997281357008889733L), new S0(0UL, 10, 224, 1, -8541848472118188520L, 183, 7760541443889255080L, 1UL, -9223372036854775807L), new S0(3381631319409863774UL, 24, 92, 126, 1L, 1, 9223372036854775807L, 18281483694135003510UL, -9223372036854775807L), new S0(18446744073709551614UL, -47, 184, -36, -1L, 176, -2121737022738620384L, 1799077516497208514UL, 7730688186697268717L)}};
        new S0(10449758106327126597UL, 52, 29, 10, 0L, 0, -3244462891172676558L, 2355815829842508219UL, 3903993940628895517L).M85(new C1(26038, 1, 0), this.F0);
        arg1[0] = -113;
        return ref Program.s_44;
    }

    public short[] M83()
    {
        short var0 = default(short);
        I0 var1 = default(I0);
        bool[] var2 = default(bool[]);
        var0 = Program.M84(Program.s_27[0].F1, Program.s_30++, this, !!Program.s_31.F2);
        this.M85(new C1(-32768, 0, 0), this.F7);
        var1 = this;
        this.F7--;
        Program.M84(this.F2, 0U, new S0(18446744073709551614UL, 38, 20, 1, -7557520967113927321L, 0, -1697857809321343787L, 18446744073709551614UL, 1400785712320450098L), true);
        {
            var1 = new S0(this.F0, this.F1, this.F2, this.F3, -1407435257052361536L, 0, (long)Program.M84(1, 0U, var1, false), (ulong)Program.M84((byte)(~this.F5), Program.s_30, var1, Program.s_23.F2), Program.s_75[0, 0, 0] / (long)(this.F6 | 1));
            Program.s_69 = this.F5;
            var2 = new bool[]{true, true, true, false, true, false, true};
        }

        return new short[]{-31229};
    }

    public C1 M85(C1 arg0, ulong arg1)
    {
        C1 var1 = default(C1);
        for (int var0 = 0; var0 < 2; var0++)
        {
            var1 = arg0;
            Program.s_84 = new C0(108, 1, false);
        }

        return arg0;
    }

    public sbyte M91(int arg0)
    {
        C1 var0 = default(C1);
        ushort var1 = default(ushort);
        S0 var2 = default(S0);
        long var3 = default(long);
        sbyte var4 = default(sbyte);
        sbyte var5 = default(sbyte);
        I0 var6 = default(I0);
        S1 var7 = default(S1);
        sbyte[] var8 = default(sbyte[]);
        C1 var10 = default(C1);
        S1 var11 = default(S1);
        Program.s_31 = Program.s_21[0][0, 0];
        {
            if (Program.s_50.F2)
            {
                this = new S0(18446744073709551615UL, -10, 23, 41, 2654334464883265452L, 2, 9223372036854775807L, 18446744073709551615UL, 4470573569987931585L);
                if (Program.s_31.F2)
                {
                    var0 = new C1(-30212, 1, 20364);
                    Program.s_20 = var0.F1;
                    arg0 = -464384686;
                    --this.F8;
                }
                else
                {
                    var1 = 28677;
                    this.F5 = this.F5;
                    this.F4 = 445414684 / (long)(this.F8 | 1);
                }
            }

            var2 = this;
            if (1UL >= this.F2)
            {
                var3 = var2.F6;
                var4 = -10;
                var5 = var2.F1;
            }
            else
            {
                Program.s_19 = 0;
                var6 = this;
                {
                    {
                        this.F4 = this.F4;
                        this.F4 = this.F6++;
                        var7 = new S1(19242, 9088881520221136215L, 32766);
                    }

                    var8 = new sbyte[]{-100, -128, 126, 0, 1, 70, 109, -1, -2, -10};
                    ref I0 var9 = ref var6;
                    var10 = Program.s_53;
                    var11 = new S1(-31048, -2L, 15514);
                    var9 = ref Program.s_63;
                    Program.s_88 = new C1[]{new C1(-1, 6249, 7691), new C1(-10, 59315, 48689), new C1(-10, 10688, 1), new C1(32767, 6357, 25246), new C1(-2430, 1, 21855), new C1(32766, 65534, 61107), new C1(-18859, 1, 25846), new C1(13215, 0, 1), new C1(-11493, 23395, 14399), new C1(0, 65534, 0)};
                    Program.M92();
                    var6 = var6;
                }

                var2 = var2;
                new C1(25451, 64169, 0).M99((uint)new S1(18513, 0L, 5185).M107(ref Program.s_51)) = (short)new S0(15524266224145203985UL, -10, 1, 127, -10L, 255, 1L, 1UL, -2121012124853068298L).M97(new S1(1, -6118471144167618534L, -32768));
                Program.s_109 = new long[]{1L, 153315057660803245L, 1L, -3681935996591755788L, 0L, 9223372036854775806L, 3033514851760944311L, 2823912693774738768L};
                --var2.F5;
                Program.s_110 = var2.F3;
                Program.s_86.F1 = (byte)(-var2.F2);
            }
        }

        this.F5 = Program.s_64--;
        return this.F3;
    }

    public int M97(S1 arg0)
    {
        int var0 = default(int);
        ulong var1 = default(ulong);
        S0 var2 = default(S0);
        long var3 = default(long);
        S0 var4 = default(S0);
        C0 var5 = default(C0);
        int var6 = default(int);
        bool var7 = default(bool);
        S0 var8 = default(S0);
        long[] var9 = default(long[]);
        long var10 = default(long);
        ulong var11 = default(ulong);
        var0 = Program.s_58--;
        if (arg0.F0 > 10)
        {
            this.F1 = this.F3;
            if (var0 >= ~var0)
            {
                arg0.M98(new S1(-17602, 997095437453008718L, -27450), 0, new uint[, ]{{3382542077U, 1U, 1148339725U, 1U, 1U, 4294967295U}, {2107568547U, 2U, 0U, 1335912391U, 829521602U, 1U}, {2218528233U, 2049060810U, 399588880U, 0U, 1U, 3428584356U}, {1U, 1839868600U, 1U, 3795480119U, 1712887351U, 0U}, {1U, 1552887893U, 1U, 4144842931U, 1U, 4294967294U}, {0U, 4211229906U, 0U, 1U, 4256049825U, 3840464300U}, {4294967294U, 0U, 1U, 0U, 4131158444U, 4250755882U}, {0U, 1U, 3375619244U, 0U, 3169212744U, 3395665067U}, {2040549927U, 0U, 75194629U, 1044903703U, 3730563098U, 0U}, {4294967295U, 782937648U, 3820629420U, 0U, 2502268349U, 4294967295U}}, Program.s_36.F0++, Program.s_58);
                Program.M101();
                var1 = this.F0;
                arg0.F1 = Program.M101();
                var2 = this;
                {
                    Program.s_24.F8 = this.F8;
                    arg0.M102();
                }
            }

            {
                if (!!!Program.s_27[0].F2)
                {
                    var3 = 7322993961193597806L;
                    {
                        {
                            Program.M100(Program.s_79.F0);
                            Program.s_96 = this.F5;
                        }

                        var4 = new S0(this.F7, 11, 0, this.F3, this.F6, Program.s_73.F5, (long)Program.M100(Program.s_47), this.F7, this.F8);
                        var4 = new S0(18217939362389108931UL, 32, 0, 1, 8279630364542332847L, 135, -2716715750669677523L, 1163590324102799857UL, 1L);
                        var5 = new C0(-116, 46, false);
                        if (Program.s_40)
                        {
                            var6 = var0;
                            var7 = !var5.F2;
                        }
                        else
                        {
                            Program.s_63 = new C1(0, 65006, 47425).M106();
                            new S1(-12916, -6218585568946180549L, 10).M103();
                            var8 = arg0.M103();
                            Program.M104().M99(Program.s_54[0]++);
                            Program.M101();
                            arg0.M102();
                            new C1(-32767, 8497, 8929).M106();
                            var9 = new long[]{-2L, -437237828667368144L, 0L, -9204383557279379057L, -8829531192468763200L, 8463198317038735754L, 1L};
                        }

                        Program.s_97 &= arg0.M102();
                    }

                    return -(int)Program.M101();
                }
            }

            Program.M104();
            if (Program.s_29[0, 0, 0])
            {
                {
                    arg0.M98(arg0, (short)Program.M100((short)Program.M100(-17826)), new uint[, ]{{983167356U}, {0U}, {2397635437U}, {2154895027U}, {433325993U}, {4086589508U}, {1U}}, this.F7, var0);
                    var0++;
                    this.F2 = Program.s_36.F5;
                    var10 = arg0.F1;
                    Program.s_84.F0 = new C0(2, 204, false).M105(this.F1, Program.s_1, this.F5);
                    new C1(32766, 0, 1).M106();
                    {
                        return arg0.M107(ref arg0);
                    }
                }
            }

            this.F4 = (long)(1 | this.F1);
        }

        var11 = this.F7;
        return -2056583308;
    }
}

public struct S1
{
    public short F0;
    public long F1;
    public short F2;
    public S1(short f0, long f1, short f2)
    {
        F0 = f0;
        F1 = f1;
        F2 = f2;
    }

    public C0 M5()
    {
        C1[] var0 = default(C1[]);
        C0 var1 = default(C0);
        uint[] var2 = default(uint[]);
        if (!!!!(true || !(false && (this.F2 != 0))))
        {
            if (!!!!(127 < (byte)(~(byte)(-(byte)(~(byte)(0 - (byte)(-(byte)(0 - (byte)(~(byte)(~(byte)(~(byte)(0 << (ushort)(~Program.s_23.M6(new S0(16710841568026751707UL, 127, 1, -2, 1L, 253, -9223372036854775808L, 13492877270247485878UL, -10L)))))))))))))))
            {
                {
                    var0 = Program.s_88;
                    var0[0].F2 = var0[0].F2;
                }

                this.F2 %= (short)(this.F2 | 1);
                Program.M73();
                var1 = this.M45();
            }
            else
            {
                Program.s_50.F1 = (byte)new S1(14787, -9223372036854775808L, 3116).M12();
            }

            Program.s_50 = new C0(-66, 99, false);
            var2 = Program.s_54;
            return new C0(-115, 87, false);
        }

        return new C0(-86, 254, true);
    }

    public C1 M9()
    {
        C1 var0 = default(C1);
        ulong[][] var1 = default(ulong[][]);
        this.F0 = this.F0;
        var0 = new C1(-18988, 1, 65534);
        var0.F1 = (ushort)(new C1(140, 49740, 11437).M10() % (int)(-525216884 | 1));
        Program.s_1[0].F1 = Program.s_1[0].F1;
        var1 = new ulong[][]{new ulong[]{1UL, 0UL, 1UL}, new ulong[]{0UL, 1UL, 14652115768533088549UL}, new ulong[]{1UL, 18117528223174721510UL, 8821313281349164304UL, 0UL}, new ulong[]{2UL, 7431421266471640506UL}, new ulong[]{13694848625026531811UL, 17570003313047749228UL}, new ulong[]{10781057612978004685UL, 7301878137508480664UL, 537092836704193368UL, 1846645740525240753UL}, new ulong[]{15870488931721676779UL}, new ulong[]{0UL}};
        this.F2 = var0.F0;
        var0.F1 = 9774;
        if (!!(127 < (byte)(Program.M11(true, new bool[][]{new bool[]{true}, new bool[]{false, true, false}, new bool[]{true, false, true}}, new ushort[]{0, 33872, 6074, 41615, 21477, 1}, 2810356540U) << var0.F0)))
        {
            ref bool[] var2 = ref Program.s_2;
        }

        return new C1(-15540, 39250, 40831);
    }

    public uint M12()
    {
        this.F1--;
        if (Program.s_2[0])
        {
            this.F0 = this.F2;
        }

        this.F2 = (short)((byte)(0 >> (ushort)(139 << (byte)(4294967294U / (long)(this.F1 | 1)))) >> (sbyte)(~Program.s_3--));
        this.M13((int)(2237942011U | (ushort)(+Program.s_5[0][0, 0, 0].F1)));
        return 4235785921U;
    }

    public short[] M13(int arg0)
    {
        C1 var2 = default(C1);
        C0 var3 = default(C0);
        try
        {
            if (!new C1(-12690, 20772, 1).M14())
            {
                ref ulong var0 = ref Program.s_4;
                new C1(2, 0, 4592).M14();
            }
        }
        finally
        {
            this.F1 = this.F1;
            try
            {
                Program.s_1[0] = new S1(18064, -8470170597013217231L, 2);
                if (1 > Program.s_3)
                {
                    Program.s_1[0].F2 = this.F2;
                    ref C1[][,, ] var1 = ref Program.s_5;
                    this = this;
                    var1[0][0, 0, 0] = var1[0][0, 0, 0];
                }
            }
            finally
            {
                var2 = new C1(-26393, 45865, 1);
            }

            var3 = new C0(-128, 22, false);
        }

        this.F1 = this.F1++;
        new C1(-32768, 0, 2).M14();
        return new short[]{32767, -16361, 17825, 25768, -32767, -3666, 13887};
    }

    public sbyte M29(short arg0, sbyte arg1)
    {
        I0[] var0 = default(I0[]);
        long var1 = default(long);
        sbyte[][] var2 = default(sbyte[][]);
        C1 var3 = default(C1);
        long[, ] var4 = default(long[, ]);
        sbyte[] var5 = default(sbyte[]);
        C0 var6 = default(C0);
        uint var7 = default(uint);
        S1[][] var8 = default(S1[][]);
        var0 = new I0[]{new S0(10249801429547837246UL, 1, 186, -1, 10L, 39, 4264577709967679468L, 10079732339138617045UL, -6940026603005948664L), new S0(18446744073709551614UL, 77, 35, -38, -7897399965464538945L, 102, -7948293414096869270L, 8894650006357750762UL, 1L), new S0(18446744073709551615UL, -18, 254, 1, 1L, 0, 2580149646442064687L, 9126922827172089155UL, -2716772829353800960L), new S0(7733814673856131139UL, 115, 181, -107, -7545377382910079355L, 0, -9223372036854775807L, 1UL, -10L), new S0(13295170105362897675UL, 1, 1, -10, 4719164125102220799L, 0, -579029892130997086L, 11479341921244842981UL, -9223372036854775807L)};
        if (Program.s_9)
        {
            this = new S1(-26840, 9223372036854775806L, -32768);
            this.F0 = 0;
        }

        try
        {
            Program.s_1[0].F0 = 10934;
        }
        finally
        {
            if (!(Program.s_6.F7 >= ~~Program.s_4))
            {
                var1 = this.F1;
                arg0 = this.F0;
                var2 = new sbyte[][]{new sbyte[]{-128, 127, -2, 126, -83}, new sbyte[]{1, 1, 109}};
                {
                    var3 = new C1(19779, 65535, 65535);
                    Program.s_18.F0 = Program.s_17.F0;
                    this = this;
                    this.F1 = this.F1--;
                    Program.s_20 |= Program.M30(ref Program.s_21);
                }

                try
                {
                    Program.s_8[0] += this.F2;
                    Program.M30(ref Program.s_21);
                    var4 = new C1(5455, 10, 2).M31();
                }
                finally
                {
                    Program.s_21[0][0, 0] = new C0(-12, 1, true);
                }
            }

            Program.M32();
            Program.s_9 = Program.s_22;
        }

        this.F2 = arg0;
        var5 = new sbyte[]{84};
        var6 = new C0(-107, 2, false);
        try
        {
            if ((short)(~Program.s_5[0][0, 0, 0].F0) < Program.s_12++)
            {
                Program.M40(Program.s_28.F2++);
                var7 = 2339806790U;
                {
                    var8 = new S1[][]{new S1[]{new S1(-7083, 7576353665406321383L, -26624), new S1(24009, -1362643951325635218L, 13356), new S1(32766, 1L, -32767), new S1(-1513, 7189296239957118165L, 32766), new S1(0, -4468743017903574687L, -23786), new S1(-1, -9223372036854775808L, 32766)}, new S1[]{new S1(-23209, 9223372036854775807L, -32768), new S1(28016, 1L, 32766), new S1(-14586, -7638021398374953043L, -32768), new S1(-10, -1L, 0), new S1(-13825, -5802477224292081769L, 10), new S1(9220, 0L, 0), new S1(-5745, -8292495823121969046L, -32768)}, new S1[]{new S1(-2428, 9223372036854775807L, 0), new S1(-4222, 7425541059761000151L, 32767), new S1(-32768, -3253114052457701847L, 14395), new S1(-24619, -2L, 21649), new S1(7269, 0L, -13889), new S1(3810, 9223372036854775806L, -16470)}, new S1[]{new S1(22967, 1951187904909792259L, 15573), new S1(-32768, 9223372036854775807L, 32767), new S1(-23572, 4105319648547959402L, 0), new S1(28333, 6668860840771454564L, 31435), new S1(15841, 0L, -21815), new S1(-5050, 3325517071698968151L, -25819)}, new S1[]{new S1(22685, 9223372036854775807L, 8055), new S1(23366, 1L, 10), new S1(30290, -7516183723194192378L, 27282)}, new S1[]{new S1(28653, -6871934155433955140L, -32767), new S1(18324, 1L, 2729)}, new S1[]{new S1(-15413, -9223372036854775807L, 1), new S1(0, 2764630018813138011L, 32766), new S1(-32767, -6400558209746298281L, 1302), new S1(-32768, 2L, -9749), new S1(-3613, 3298608315891441061L, 1), new S1(0, 4912161057783214355L, -10)}, new S1[]{new S1(-32768, -6371017528726454237L, 1701), new S1(-29537, 6038857155157123240L, -32767)}, new S1[]{new S1(-22757, 0L, 15210), new S1(0, -6429456310180615177L, -8189)}, new S1[]{new S1(-4363, 4661077615520082987L, 0), new S1(-32768, 1L, 8464), new S1(2, 5649625707750233710L, -22002), new S1(12573, -9223372036854775807L, -17834), new S1(25899, 239547626926221427L, 32726)}};
                    var6.M34() = this;
                }
            }
        }
        finally
        {
            var5[0] = Program.s_27[0].F0;
            Program.M42();
        }

        var6.F2 = false;
        this.F2 = (short)(~(short)(-this.F0));
        Program.M39();
        return -61;
    }

    public byte M37(ref C1 arg0, long arg1)
    {
        uint var0 = default(uint);
        ulong var1 = default(ulong);
        I0 var3 = default(I0);
        ushort var4 = default(ushort);
        C1[] var5 = default(C1[]);
        sbyte[] var6 = default(sbyte[]);
        if (!Program.s_9)
        {
            Program.s_1[0].F1 = arg1;
            {
                arg1 = arg1;
                var0 = Program.s_12;
                var1 = 14546322000298747641UL;
            }
        }
        else
        {
            {
                Program.s_8[0] = this.F0;
                ref ulong var2 = ref Program.s_6.F0;
                if (167 >= Program.s_6.F7)
                {
                    this.F1 = this.F1;
                    Program.s_5[0][0, 0, 0].F1 = arg0.F2--;
                    {
                        {
                            Program.s_6.M38(new ulong[]{10UL, 1UL, 8102319478660417502UL, 1UL, 18446744073709551615UL, 1UL, 7511185167815260917UL, 4256129219536778545UL}, arg0.F1);
                        }
                    }

                    var3 = new S0(7979408252113698718UL, 3, 1, -53, 9223372036854775807L, 1, 0L, 1UL, 7489709748087903123L);
                    var4 = 0;
                    var2 = var2;
                    var3 = var3;
                    Program.s_24 = Program.s_24;
                    var5 = new C1[]{new C1(5869, 0, 2), new C1(2260, 65535, 65535), new C1(21766, 18614, 31340), new C1(-31623, 1, 63730), new C1(32766, 65535, 56213), new C1(-2, 0, 31932), new C1(1, 0, 0), new C1(27882, 28005, 0)};
                }
            }

            this = this;
        }

        try
        {
            {
                Program.M39();
                var6 = new sbyte[]{1, 25, 0, -128, 127, 10};
                return Program.s_16.F1;
            }
        }
        finally
        {
            this.F2 = this.F0;
        }

        {
            this.F0 = arg0.F0;
            Program.s_1[0] = this;
            if (!!Program.s_16.F2)
            {
                arg0.F0 = (short)((ulong)Program.s_6.M38(new ulong[]{11777605647834569597UL, 1UL, 1UL, 18446744073709551614UL}, arg0.F1) ^ arg0.F2);
                this.F1 = 0L;
                ref C0 var7 = ref Program.s_23;
            }
            else
            {
                this.F0 = (short)new S0(17958531878922985033UL, -128, 49, 127, -5335354815140191269L, 120, -5858547034448468337L, 18446744073709551614UL, 9223372036854775807L).M38(new ulong[]{1UL, 18446744073709551615UL, 4497418640053424382UL, 2665688238221298811UL, 1UL, 0UL, 18446744073709551614UL}, new S0(404133801963698194UL, 60, 0, 52, -6371420883443764891L, 159, -105995814957166599L, 1UL, 7973328607383288104L).M38(new ulong[]{18446744073709551614UL, 1UL, 1UL}, 46076));
            }
        }

        this.F2 = (short)(arg0.F2 + -10);
        return 0;
    }

    public C0 M45()
    {
        this.F1 <<= -(-~(int)(-2850237518354844144L & Program.s_3));
        this.F1 += ~this.F1;
        return new C0(21, 152, true);
    }

    public bool M50(C1 arg0, uint arg1)
    {
        short[] var2 = default(short[]);
        I0[] var3 = default(I0[]);
        ulong[] var4 = default(ulong[]);
        int var5 = default(int);
        I0 var6 = default(I0);
        C1 var7 = default(C1);
        uint var8 = default(uint);
        C1 var9 = default(C1);
        ushort var10 = default(ushort);
        C1 var11 = default(C1);
        this = this;
        arg0.F1 = arg0.F1++;
        try
        {
            if (!((Program.s_36.F7 >= 1) && false))
            {
                ref I0 var0 = ref Program.s_34;
                this.F1 = this.F1;
                if (1U > Program.s_6.F1++)
                {
                    this.M51(Program.s_27[0]);
                    arg0 = new C1(3831, 65534, 0);
                    ref uint var1 = ref arg1;
                    Program.s_43 = Program.s_36.F6--;
                    var0 = new S0(1UL, -66, 18, 0, 2L, 98, 0L, 8326237490336487502UL, 10L);
                    var2 = new short[]{-10, 22798, 20466, 4502};
                    this.F0 = -12270;
                }
                else
                {
                    new S1(-6282, 1576135624808866051L, 0).M51(this.M51(new C0(1, 0, true)));
                }

                if (0 > Program.s_38++)
                {
                    var3 = new I0[]{new S0(1UL, 123, 255, -128, 0L, 0, 9121987498225977858L, 8566478382448059735UL, 0L)};
                    var4 = new ulong[]{4632368654920900154UL, 1UL, 13390470130418275900UL, 4444153676881789985UL, 0UL, 18446744073709551614UL, 1930854622604462050UL, 1UL, 1UL};
                    var5 = 378210891;
                    Program.s_36.F0 = var4[0];
                }

                arg0.F1 = arg0.F2;
            }

            Program.s_32[0].F1 = arg0.F2;
            var6 = new S0(1UL, 34, 175, 10, 9223372036854775807L, 255, 10L, 1UL, 5236037305576206100L);
            this.F1 = Program.s_6.F4;
            Program.s_17.F2 = 0;
            try
            {
                Program.s_18.M51(Program.s_23);
            }
            finally
            {
                this.M51(new C0(127, 0, true));
            }

            var7 = new C1(2, 4142, 8757);
        }
        finally
        {
            var8 = 1U;
            var9 = new C1(-4914, 1, 1);
            if (Program.s_23.F2)
            {
                this = this;
                try
                {
                    try
                    {
                        var10 = var9.F2;
                    }
                    finally
                    {
                        this.F2 = arg0.F0++;
                        var8 = Program.s_25[0][0]--;
                        Program.s_36.F1 %= (sbyte)((sbyte)(-(sbyte)((uint)(-18 & new C0(-10, 1, false).M52(Program.s_42[0].F3, arg1, new sbyte[]{18, -23}, ref arg1, ref Program.s_46)) & 5909184475865761644UL)) | 1);
                    }
                }
                finally
                {
                    var9 = Program.s_5[0][0, 0, 0];
                }

                var11 = Program.s_32[0];
            }
        }

        return Program.s_9;
    }

    public C0 M51(C0 arg0)
    {
        ulong var0 = default(ulong);
        var0 = Program.s_24.F0--;
        this.F2 = Program.s_28.F2--;
        this = this;
        return new C0(30, 127, true);
    }

    public ulong[] M63(byte arg0, sbyte arg1, C0 arg2)
    {
        ushort var0 = default(ushort);
        var0 = 27618;
        return new ulong[]{0UL};
    }

    public bool M81()
    {
        short var0 = default(short);
        long var1 = default(long);
        short var3 = default(short);
        long[] var4 = default(long[]);
        byte var5 = default(byte);
        S0 var6 = default(S0);
        this.F2 = Program.s_5[0][0, 0, 0].F0++;
        if (Program.s_70)
        {
            var0 = this.F2++;
            var1 = this.F1;
        }

        for (int var2 = 0; var2 < 2; var2++)
        {
            var3 = (short)(~(short)(-Program.s_79.F0++));
        }

        this = this;
        this.F1 = -4226080582381613214L;
        this = this;
        {
            this.F2 = this.F0;
            var4 = new long[]{4213667947905514265L, 1L, 1L, 1L, 5039513101181534091L, 1L, -7670280859064141677L, 652613047218037460L};
            {
                new S0(0UL, -69, 0, -127, 2637663292773152396L, 254, -623482689134514590L, 7399509591241038032UL, -9223372036854775807L).M82(Program.s_76, new sbyte[]{126, 103, 1, -128, -59, 1, 41, 10, -98, -62}, ref Program.s_83[0]);
                Program.s_68[0] = -3419545018266510512L;
                Program.s_25[0] = Program.s_83;
                var4 = new long[]{-9223372036854775807L, 2106770454011132271L, -9223372036854775808L, -1L};
                new S0(18446744073709551614UL, 127, 45, -54, 7122539586913310025L, 206, -4265048553885117005L, 0UL, 1L).M85(Program.s_46[0], (ulong)Program.M84((byte)Program.M84((byte)Program.M84(Program.s_64, (uint)(var4[0] & 699741512), new S0(0UL, 1, 1, -128, 0L, 170, 1L, 0UL, -1990687056433173049L), true), Program.s_75[0, 0, 0]++, Program.s_56, false), 3332634161U, new S0(10583340966854742747UL, 127, 1, 123, -7438882555865087765L, 1, -9223372036854775807L, 7546075989298633956UL, 9223372036854775806L), true));
            }

            var4[0] = var4[0];
            var5 = (byte)(-2L - this.F2);
        }

        {
            Program.s_70 |= false;
            var6 = new S0(11352905392693089600UL, -127, 49, -96, -10L, 0, 806355153002011669L, 7571860003821174952UL, 9223372036854775807L);
            var6.F2 = var6.F5;
        }

        return new S0(12098276009336188650UL, -127, 0, -127, 1807990074341582259L, 1, -9223372036854775807L, 16122335656427765293UL, 0L).M82(Program.s_38--, new sbyte[]{-10, 126, 26}, ref Program.s_75[0, 0, 0]);
    }

    public ref C0 M87(ref byte arg0)
    {
        bool var0 = default(bool);
        bool var1 = default(bool);
        this.F0 = this.F2;
        var0 = true;
        if (var0)
        {
            var1 = var0;
            new C0(95, 210, false).M88();
            if (var1)
            {
                this.F1 = this.F1;
            }
        }

        return ref Program.s_84;
    }

    public ref int M98(S1 arg0, short arg1, uint[, ] arg2, ulong arg3, int arg4)
    {
        long var1 = default(long);
        S1 var2 = default(S1);
        ulong var3 = default(ulong);
        byte[, ] var4 = default(byte[, ]);
        long var5 = default(long);
        S0[] var6 = default(S0[]);
        byte var7 = default(byte);
        int var11 = default(int);
        sbyte[] var13 = default(sbyte[]);
        S0 var14 = default(S0);
        ulong var15 = default(ulong);
        Program.s_79.F0 = arg1;
        {
            arg2[0, 0] <<= -2;
            for (int var0 = 0; var0 < 2; var0++)
            {
                Program.s_42[0] = new S0(arg3, Program.s_7, Program.s_73.F2, 93, arg0.F1, Program.s_16.F1, arg0.F1, Program.s_89.F0++, (long)(1 & arg0.F0));
                var1 = 1L;
            }

            new C1(32766, 31730, 0).M99(arg2[0, 0]);
            this = new S1(-2, -8614771856396192845L, 7285);
            Program.s_47 >>= 10;
            arg0.F0 = (short)(arg3-- - Program.s_6.F2++);
        }

        if (!(Program.s_22 == false))
        {
            new C1(32767, 65534, 0).M99(arg2[0, 0]) = this.F0;
            var2 = arg0;
            {
                Program.s_6.F1 = (sbyte)new C1(-20666, 65534, 0).M99(arg2[0, 0]++);
                arg0.F0 = arg0.F2++;
            }
        }
        else
        {
            arg0.F0 = 32766;
            arg0.F2 = arg0.F2;
        }

        new C1(32766, 1, 1902).M99(arg2[0, 0]);
        {
            Program.M100(this.F0);
            this.F0 = (short)(arg4 * Program.s_41[0][0][0, 0, 0]);
            arg2[0, 0] = arg2[0, 0]--;
            var3 = arg3;
            {
                arg0.F0 = arg1;
            }

            Program.M101();
            var4 = new byte[, ]{{255, 238, 1}, {42, 1, 98}};
            Program.M100(arg0.F0--);
        }

        var5 = arg0.F1;
        arg0.F0 = arg0.F0;
        if (true ^ (true && !!Program.s_2[0]))
        {
            var6 = new S0[]{new S0(11721930959394737312UL, -127, 6, -1, -7641783092364358479L, 63, 4339265677968796994L, 9787587819027060644UL, 5934382266654762846L), new S0(1UL, 126, 0, 14, -2L, 255, 9223372036854775806L, 14878207381548608186UL, 8029718170752975014L), new S0(15107560355217450793UL, 122, 254, 126, 8475338613106286088L, 137, 0L, 14111782823218563815UL, -9223372036854775807L)};
            Program.M101() = arg0.F1;
        }

        var7 = (byte)new S1(-32767, 1L, -29511).M102();
        var7 = (byte)(arg1 | 0);
        for (int var8 = 0; var8 < 2; var8++)
        {
            ref bool var9 = ref Program.s_94;
            Program.s_30 = 1953970950U;
            var7 = var7;
            try
            {
                arg3 = arg3;
            }
            finally
            {
                for (int var10 = 0; var10 < 2; var10++)
                {
                    var11 = var8;
                    new S1(-13638, 7702779751537659556L, 0).M102();
                }
            }

            if (var9)
            {
                ref short var12 = ref this.F0;
                var13 = new sbyte[]{126, -93, -63, 0};
                new C1(0, 54209, 22151).M99((uint)Program.M101()) = Program.s_8[0];
                var12 = ref this.F2;
                if (var9)
                {
                    arg0.F1 = (long)((ushort)(arg3 / (byte)(var7 | 1)) * var8);
                }

                var9 = var9;
            }

            if (Program.s_16.F2)
            {
                var14 = this.M103();
                Program.M104();
                Program.M101() -= 3229888190497037277L;
            }

            var15 = (ulong)((-arg0.F1) * -2147483648);
        }

        {
            for (int var16 = 0; var16 < 2; var16++)
            {
                new C1(26617, 2584, 64568).M99(Program.s_75[0, 0, 0]) = this.F0;
            }

            this.F0 = this.F2++;
            arg4 = arg4++;
            ref S0 var17 = ref Program.s_89;
        }

        return ref Program.s_74;
    }

    public uint M102()
    {
        this = this;
        Program.s_79.M103();
        return (uint)(1 % (sbyte)((sbyte)(1 / (sbyte)(Program.s_36.F1 | 1)) | 1));
    }

    public S0 M103()
    {
        C1 var0 = default(C1);
        S1[, ] var1 = default(S1[, ]);
        C0 var2 = default(C0);
        ulong var3 = default(ulong);
        byte var4 = default(byte);
        ushort var5 = default(ushort);
        sbyte var6 = default(sbyte);
        C1 var7 = default(C1);
        if (Program.s_78)
        {
            if (!!Program.s_21[0][0, 0].F2)
            {
                Program.s_42[0].F6++;
                Program.s_93 = Program.s_17.F1;
                this.F1 = Program.s_24.F4;
                this.F2 = 24947;
            }
            else
            {
                var0 = new C1(-32767, 14324, 65535);
                var1 = new S1[, ]{{new S1(-2, 620668996864331344L, 17455), new S1(-32767, 236166370098635020L, -22363), new S1(-32718, -2400461043932963313L, 14316), new S1(0, 9223372036854775806L, 23527), new S1(0, -9223372036854775808L, -1), new S1(17267, 0L, 21970), new S1(1, -78863163761057869L, 528)}, {new S1(-32768, -2553928534510275514L, -32768), new S1(29459, -139074571344295296L, -32768), new S1(-4925, -7984289218329921322L, 0), new S1(32767, -1083016555570488345L, -13095), new S1(32767, 0L, 32767), new S1(-28740, 868510562583452361L, 7776), new S1(-6564, 0L, -32768)}, {new S1(0, 9223372036854775806L, 31990), new S1(31981, 9223372036854775807L, -14678), new S1(22473, 9223372036854775806L, 21410), new S1(2, -9223372036854775808L, 18355), new S1(-32767, -2L, 10), new S1(-16231, 1656308890274709279L, 32767), new S1(0, 8523028441707843760L, 32766)}, {new S1(1, 2685147337901643510L, -10), new S1(-32767, -9223372036854775807L, -25979), new S1(23449, -573656446006285720L, 0), new S1(-2, -3347154536416315328L, -20753), new S1(7347, -8551264804007395959L, 32767), new S1(1, 1L, 9516), new S1(32767, 6572174518997365708L, -5300)}, {new S1(-32767, 8888827375721398137L, 0), new S1(-26468, 0L, 7783), new S1(-18869, -9223372036854775808L, 2), new S1(-6140, 7679531858846819400L, 0), new S1(-12970, -9223372036854775808L, 2), new S1(-2, 9223372036854775806L, 32767), new S1(-32767, -6544161907669167708L, 32767)}, {new S1(-2827, -9223372036854775807L, 32766), new S1(-23034, 3305937993241139954L, 3006), new S1(-32768, 0L, -28207), new S1(-18043, 2106309629559151514L, 6521), new S1(2038, -1L, 32767), new S1(-10, 8329035404805585003L, 26479), new S1(-1837, 0L, 12403)}};
                var1[0, 0] = this;
                this = new S1(-2, 8950084339559017630L, -2);
                {
                    var2 = new C0(40, 0, true);
                    var2.F1 = var2.F1;
                    var3 = 18446744073709551614UL;
                    Program.s_33 = 0;
                    var4 = Program.s_84.F1;
                    if (var2.F2)
                    {
                        var5 = 16645;
                        var1[0, 0].F2 = (short)(~var0.F0);
                        Program.M104();
                        Program.s_29[0, 0, 0] = false;
                        var0.F0 = Program.s_51.F2;
                        Program.M104();
                    }
                    else
                    {
                        var1[0, 0].F1 = -this.F1;
                    }

                    var1 = new S1[, ]{{new S1(-11957, 1L, -1), new S1(9780, 0L, 1), new S1(23570, 9223372036854775806L, 30113), new S1(-3286, -1871833838123028144L, 0), new S1(-32767, 10L, 27207), new S1(9483, 8635935110712162436L, 32767), new S1(-32768, -1L, -32767), new S1(-16846, 0L, -1), new S1(1, -6597536866632457942L, -1)}};
                    var6 = var2.M105(var2.F0, new S1[]{new S1(2, 0L, 16081), new S1(13834, -10L, 0), new S1(32766, 9223372036854775806L, 1), new S1(-24075, 9223372036854775807L, 1), new S1(-30364, 9028081096971934866L, -4720), new S1(0, 9124246290891687738L, 29590), new S1(-19047, 1L, 32767), new S1(10, 1L, -10)}, (byte)(-var2.F1));
                }
            }

            {
                var7 = Program.M104();
                new C0(-92, 95, false).M105((sbyte)(-(sbyte)(-(sbyte)(~(sbyte)(-Program.s_27[0].F0--)))), Program.s_1, Program.s_24.F2++);
                {
                    Program.M104();
                }

                this.F0 = Program.s_46[0].F0++;
                this = this;
                var7.F2 = 1;
                return new S0(4049974546219990362UL, 1, 157, 64, -1L, 255, 0L, 1UL, 5272482449405007080L);
            }
        }
        else
        {
            Program.s_53 = Program.s_88[0];
        }

        return Program.s_89;
    }

    public int M107(ref S1 arg0)
    {
        if (Program.s_9)
        {
            Program.s_89.F8 = Program.s_6.F6;
        }

        return -Program.s_38;
    }

    public uint[, ] M116(short arg0, short arg1, ref sbyte arg2)
    {
        short var0 = default(short);
        bool var3 = default(bool);
        C0[] var4 = default(C0[]);
        bool var5 = default(bool);
        I0 var8 = default(I0);
        C0 var9 = default(C0);
        S0[] var10 = default(S0[]);
        int var11 = default(int);
        C1 var13 = default(C1);
        sbyte var14 = default(sbyte);
        byte var15 = default(byte);
        sbyte var16 = default(sbyte);
        ulong[] var17 = default(ulong[]);
        ulong var18 = default(ulong);
        S0 var20 = default(S0);
        short[] var21 = default(short[]);
        var0 = Program.s_28.F0++;
        for (int var1 = 0; var1 < 2; var1++)
        {
            Program.s_111[0, 0, 0] = 0UL;
            Program.s_5[0][0, 0, 0].F2 = (ushort)(16434335527960961046UL >> this.F2++);
        }

        for (int var2 = 0; var2 < 2; var2++)
        {
            if (!Program.s_27[0].F2)
            {
                arg1 |= arg1;
                arg1 = Program.s_118.F0;
                Program.s_116 = this.F1;
                Program.s_123 = (short)(~this.F2++);
            }
            else
            {
                var3 = Program.s_27[0].F2;
            }
        }

        this.F0 = arg1;
        if (this.F2 == Program.s_36.F2--)
        {
            arg2 = arg2;
        }
        else
        {
            {
                var4 = new C0[]{new C0(-21, 133, true), new C0(-96, 0, false), new C0(118, 254, false), new C0(0, 0, true), new C0(-68, 0, false), new C0(28, 61, true), new C0(65, 50, true)};
                try
                {
                    Program.M117();
                    if (var4[0].F2)
                    {
                        Program.s_120 = this.F1;
                        if (var4[0].F2)
                        {
                            var5 = true;
                            this.F0 = var0;
                            Program.s_79.F2 = arg0;
                            ref I0 var6 = ref Program.s_65;
                            Program.s_124 = 65212;
                            Program.s_21[0][0, 0].F2 = var4[0].F2;
                            Program.s_125 = Program.s_125;
                            var4[0] = new C0(1, 255, true);
                        }
                        else
                        {
                            Program.M117() = this.F1;
                            ref byte var7 = ref var4[0].F1;
                        }

                        this.F0 = Program.s_1[0].F0;
                        if (var4[0].F2)
                        {
                            var8 = new S0(18446744073709551615UL, 1, 254, -128, 9223372036854775806L, 228, 0L, 15626091476295345309UL, 1060420494734336976L);
                            Program.s_27[0].F0 = (sbyte)Program.M118();
                        }
                        else
                        {
                            Program.M118();
                            {
                                Program.M118();
                                var9 = var4[0];
                            }

                            this = new S1((short)((ulong)Program.M117() + (ushort)Program.M117()), Program.s_89.F6, 5547);
                        }

                        this.F1 = Program.s_93;
                        arg1 = Program.M118();
                        var10 = new S0[]{new S0(1UL, 0, 136, 23, 3834588276943341512L, 1, 2237659315060842883L, 5795572844038439985UL, 9223372036854775807L), new S0(514356676180920008UL, 0, 0, 97, 0L, 2, -607964823576556806L, 7711696580610450893UL, 9223372036854775807L)};
                        var11 = 2125448558;
                    }

                    if (var4[0].F2)
                    {
                        ref ushort[][][][] var12 = ref Program.s_126;
                        Program.s_122[0] = 5173;
                        var13 = new C1(-7048, 1, 39489);
                        Program.M117() = this.F1;
                        var14 = (sbyte)Program.M117();
                        this.F2 = var0;
                        {
                            var13 = new C1(32766, 1, 26001);
                            Program.M117() ^= this.F1;
                        }
                    }
                    else
                    {
                        if (var4[0].F2)
                        {
                            var15 = 1;
                            var4[0].F0 = (sbyte)((ulong)Program.M117() << 1);
                        }
                        else
                        {
                            return new uint[, ]{{1U, 3183469578U, 0U, 2353011971U, 3733792722U, 0U, 4294967294U}, {4294967295U, 0U, 683894987U, 2U, 0U, 4294967294U, 2350123462U}, {0U, 1U, 3531645896U, 0U, 4294967294U, 3968585260U, 1340604102U}, {44039453U, 1U, 4294967295U, 24608143U, 1U, 1214814345U, 4294967295U}, {1529511147U, 4294967295U, 3579583266U, 10U, 1U, 0U, 1732735036U}, {171469086U, 0U, 1692037959U, 4294967295U, 3362559208U, 4294967295U, 334966431U}, {4294967294U, 0U, 4238485480U, 4202107236U, 2U, 2386997852U, 153214621U}};
                        }

                        var16 = var4[0].F0;
                        var17 = new ulong[]{1UL, 1UL, 18446744073709551615UL, 18446744073709551614UL, 7902240688355416811UL, 2996544906511168813UL, 2UL, 1UL, 3033523139968646611UL, 2UL};
                        this.F0 = var0;
                    }

                    if (var4[0].F2)
                    {
                        var4[0].F1 %= (byte)(var4[0].F1-- | 1);
                        if ((int)Program.M118() == (ushort)(-2 % (uint)(Program.s_83[0] | 1)))
                        {
                            var18 = (ulong)Program.M118();
                        }
                        else
                        {
                            this.F1 = this.F1;
                            Program.s_27[0] = var4[0];
                            Program.M118();
                            Program.M118();
                            ref C1 var19 = ref Program.s_121;
                            arg0 = arg0;
                            Program.M118();
                            var4[0].F1 = (byte)Program.M117();
                            arg1 = -10;
                            Program.s_14 = Program.s_14;
                        }

                        Program.s_32[0].F1 = 1;
                    }
                    else
                    {
                        var4[0] = var4[0];
                    }
                }
                finally
                {
                    {
                        Program.s_127 = Program.s_101[0, 0];
                        Program.M118();
                    }
                }

                var20 = new S0(Program.s_73.F0, var4[0].F0, 93, (sbyte)(-6607724177997791084L ^ Program.s_74++), this.F1, (byte)Program.M118(), Program.M117(), Program.s_108--, this.F1);
            }
        }

        var21 = new short[]{29786, 30565, 0, 32767, -31763};
        this.F1 = ~Program.s_120;
        Program.s_102 = true;
        return new uint[, ]{{39185342U, 1U, 1U, 1063078024U, 3071207198U}, {1U, 4065150879U, 1U, 1U, 10U}, {1581336161U, 4294967295U, 4294967294U, 3148112632U, 2087701737U}, {1277927047U, 4294967295U, 1U, 0U, 0U}, {820599229U, 1U, 0U, 119367041U, 0U}, {262796136U, 1U, 552739018U, 0U, 2395007252U}, {1804298537U, 3211741544U, 3305981713U, 3309372884U, 1U}};
    }
}

public class C1
{
    public short F0;
    public ushort F1;
    public ushort F2;
    public C1(short f0, ushort f1, ushort f2)
    {
        F0 = f0;
        F1 = f1;
        F2 = f2;
    }

    public bool M1(sbyte arg0, short arg1, C1 arg2)
    {
        C1[] var0 = default(C1[]);
        C1 var1 = default(C1);
        var0 = new C1[]{new C1(-1348, 18390, 57856), new C1(32766, 58567, 55571), new C1(32767, 1, 53506), new C1(-32767, 1, 63126), new C1(9717, 52966, 1), new C1(-29053, 6061, 1)};
        Program.M2(!Program.M23(ref Program.s_1), var0, ref Program.M101());
        arg2.F0 = 1;
        var1 = this;
        return true;
    }

    public ushort M10()
    {
        if (2U > (ulong)((ushort)(1 / (uint)((uint)((byte)(~(byte)(9223372036854775807L + (byte)(this.F1 / (short)(Program.s_1[0].F0 | 1)))) / (sbyte)(-128 | 1)) | 1)) + (sbyte)(~(sbyte)(~(sbyte)(~(sbyte)(958230132 + (byte)(1 | (sbyte)(0 | Program.s_1[0].F1))))))))
        {
            {
                this.F0 = (short)(175 << this.F1);
            }
        }

        this.F2 = 64458;
        return 65535;
    }

    public bool M14()
    {
        this.F2 = this.F1;
        ref bool var0 = ref Program.s_2[0];
        return var0;
    }

    public bool M18(bool[] arg0, byte arg1)
    {
        sbyte[] var1 = default(sbyte[]);
        ushort var4 = default(ushort);
        I0 var5 = default(I0);
        byte[] var6 = default(byte[]);
        I0 var7 = default(I0);
        I0[][] var8 = default(I0[][]);
        I0 var10 = default(I0);
        ushort[] var11 = default(ushort[]);
        C0 var13 = default(C0);
        short var14 = default(short);
        long var15 = default(long);
        C1 var16 = default(C1);
        ulong var17 = default(ulong);
        ulong var18 = default(ulong);
        ref ulong var0 = ref Program.s_4;
        new C1(1, 65534, 16480).M19(ref arg1);
        this.F0 = Program.s_1[0].F0--;
        {
            var1 = new sbyte[]{-88, -99, 0, 10, 0};
        }

        {
            Program.M20(this);
        }

        try
        {
            ref S0 var2 = ref Program.s_6;
        }
        finally
        {
            for (int var3 = 0; var3 < 2; var3++)
            {
                var4 = this.F1--;
                var5 = new S0(14145186858169989417UL, 106, 1, -84, 0L, 236, 1L, 13719864646719044076UL, 0L);
                if (arg0[0])
                {
                    var6 = new byte[]{1, 171, 120, 254, 171, 0};
                    var7 = new S0(1UL, -127, 2, -14, -5101946212687122094L, 0, 4432226346964502482L, 18446744073709551614UL, -5435922817011451554L);
                    var8 = new I0[][]{new I0[]{new S0(0UL, 127, 8, 0, -9223372036854775808L, 0, 18293082112798262L, 11811689507705283298UL, 3191290949400978338L)}, new I0[]{new S0(1UL, -1, 76, -34, -7186736149684068110L, 1, 10L, 4494344447637304857UL, 0L)}, new I0[]{new S0(1UL, -71, 252, 108, -9223372036854775808L, 1, 0L, 14415099332524029712UL, 1L)}, new I0[]{new S0(5982482803754561157UL, 1, 0, 61, -7364356716270050732L, 1, 0L, 18446744073709551615UL, 0L)}, new I0[]{new S0(7376020508879269146UL, 49, 10, 72, 2612322011789756626L, 0, 0L, 3245010229162161361UL, 5580018281323137991L)}, new I0[]{new S0(18446744073709551615UL, 0, 2, -53, 1021415570186758598L, 1, -9223372036854775807L, 1UL, 8546295581475136329L)}, new I0[]{new S0(2UL, -25, 0, 89, 0L, 254, 1L, 0UL, 3925587693209067531L)}, new I0[]{new S0(3555607508479897894UL, -83, 0, 0, -5429443920035897676L, 0, 5214662540395652978L, 6649259015637893225UL, -4880009559210418608L)}, new I0[]{new S0(0UL, 76, 46, -128, 3311908435451453062L, 186, -4834578574758748532L, 982170501500988316UL, 10L)}};
                }

                Program.s_1[0] = new S1(32767, -10L, -28301);
            }
        }

        for (int var9 = 0; var9 < 2; var9++)
        {
            this.M19(ref arg1) = Program.s_5[0][0, 0, 0];
        }

        if (arg0[0])
        {
            {
                Program.s_6.F5 = 0;
                try
                {
                    if (arg0[0])
                    {
                        if (arg0[0])
                        {
                            var10 = new S0(1UL, 29, 0, 127, -2358561713880873977L, 116, 1L, 0UL, 9223372036854775806L);
                            var11 = new ushort[]{29187, 17419, 65535, 18531, 25616, 0, 0, 1, 1};
                            this.F2 = this.F2++;
                        }

                        arg0[0] = !arg0[0];
                        this.F2 = (ushort)(-this.F2);
                        Program.s_5[0][0, 0, 0] = new C1(20503, 65534, 10);
                        Program.s_7 = -26;
                    }
                    else
                    {
                        Program.s_8 = Program.s_8;
                    }
                }
                finally
                {
                    ref ulong var12 = ref var0;
                }
            }

            var13 = new C0(5, 254, false);
            Program.M20(this).M19(ref Program.s_6.F2).M19(ref Program.s_6.F5) = Program.s_5[0][0, 0, 0];
            var14 = this.F0;
            this.F0 = Program.s_1[0].F2;
            Program.M20(this);
            var13.F1 = 133;
            try
            {
                this.F0 = this.F0;
            }
            finally
            {
                new C1(var14, this.F1, 38124).M19(ref var13.F1) = this;
                var15 = 2L;
                this.M19(ref var13.F1);
                arg1 = 0;
                {
                    {
                        Program.M20(new C1(32767, 31206, 10556));
                        var16 = new C1(0, 65535, 34354);
                    }

                    Program.M20(Program.s_5[0][0, 0, 0]);
                    var17 = var0;
                    this.F2 = 59833;
                    var17 = var17;
                }

                var18 = var0;
                if (!arg0[0])
                {
                    var13 = var13;
                    Program.M20(this).M19(ref var13.F1) = new C1(Program.s_5[0][0, 0, 0].F0, 53980, this.F2);
                    ref bool[] var19 = ref arg0;
                    ref S1 var20 = ref Program.s_1[0];
                }
            }

            Program.s_5[0][0, 0, 0].F0 = Program.s_1[0].F0;
        }

        return true;
    }

    public ref C1 M19(ref byte arg0)
    {
        uint var0 = default(uint);
        I0[] var1 = default(I0[]);
        short[] var2 = default(short[]);
        if (Program.s_2[0])
        {
            var0 = 1U;
        }
        else
        {
            if (Program.s_2[0])
            {
                var1 = new I0[]{new S0(6134716082547842957UL, 127, 145, -102, 3782464668090688438L, 19, 3154751169797485466L, 0UL, 9223372036854775807L), new S0(18446744073709551615UL, -2, 254, 36, -9223372036854775807L, 0, -6335897990959546307L, 17469816857894812883UL, -8475453496173408334L)};
                Program.M20(Program.M20(this));
            }
            else
            {
                var2 = new short[]{2, -13580, 3112, 32767, -24104, 21734};
                this.F0 = var2[0];
            }
        }

        return ref Program.s_5[0][0, 0, 0];
    }

    public C0 M21()
    {
        C0[] var0 = default(C0[]);
        var0 = new C0[]{new C0(126, 142, true), new C0(0, 194, false), new C0(-74, 10, false), new C0(127, 1, true), new C0(91, 0, true), new C0(70, 1, true)};
        return var0[0];
    }

    public bool M22(I0 arg0)
    {
        ulong var1 = default(ulong);
        S0 var2 = default(S0);
        uint var3 = default(uint);
        byte[][] var4 = default(byte[][]);
        S0 var5 = default(S0);
        if (Program.s_2[0])
        {
            if (Program.s_9)
            {
                Program.s_11 = Program.s_11;
                try
                {
                    Program.M23(ref Program.s_1);
                    Program.M25(Program.s_12, this.F1);
                }
                finally
                {
                    ref C0 var0 = ref Program.s_16;
                    arg0 = arg0;
                }

                var1 = 1UL;
                var1 = var1;
            }

            if (Program.s_6.F3 != ~Program.s_12++)
            {
                Program.s_17 = Program.s_1[0];
                Program.M25(0U, 54290);
                this.F1 = 44033;
                this.F2 = this.F1;
                Program.s_10 = 103;
                var2 = new S0(13331004114361410253UL, -110, 81, -3, 0L, 153, -4223282101510619290L, 10724372000476034417UL, -2L);
            }
        }

        var3 = 1U;
        Program.M25(var3--, (ushort)(~this.F2)) = new S1(-24645, -9223372036854775808L, -13702);
        var4 = new byte[][]{new byte[]{1, 114, 65}, new byte[]{12, 0, 207, 1, 190, 245, 1, 246, 249, 1}};
        var5 = new S0(18446744073709551614UL, -42, 10, 121, 9223372036854775807L, 1, 1L, 2169734914499557307UL, 2239247498138057324L);
        return Program.M24();
    }

    public short M28()
    {
        sbyte var0 = default(sbyte);
        bool var1 = default(bool);
        var0 = Program.s_3++;
        try
        {
            var1 = false;
        }
        finally
        {
            Program.s_7 = var0;
            Program.s_5[0][0, 0, 0].F2 = this.F2;
        }

        var0 = 1;
        if (!!!Program.s_2[0])
        {
            var0 += new S1(32363, 0L, 22880).M29(-28250, (sbyte)Program.M33());
        }

        this.F2--;
        this.F1 = (ushort)((ushort)(~Program.s_13) | (byte)(-(byte)(-Program.s_27[0].F1)));
        return this.F0;
    }

    public long[, ] M31()
    {
        C0 var1 = default(C0);
        long var2 = default(long);
        int var4 = default(int);
        uint[] var6 = default(uint[]);
        bool var7 = default(bool);
        bool[] var8 = default(bool[]);
        byte var9 = default(byte);
        int var10 = default(int);
        byte var12 = default(byte);
        byte var13 = default(byte);
        bool var14 = default(bool);
        long[] var15 = default(long[]);
        bool var17 = default(bool);
        sbyte[][] var18 = default(sbyte[][]);
        bool var19 = default(bool);
        I0 var20 = default(I0);
        C1[][] var22 = default(C1[][]);
        byte var23 = default(byte);
        C1 var24 = default(C1);
        S1 var25 = default(S1);
        try
        {
            this.F1 = 24517;
            if (Program.s_16.F2)
            {
                Program.s_18.F1 = -2L;
                ref uint var0 = ref Program.s_12;
                if (false ^ !(Program.s_6.F5 > Program.s_1[0].F2++))
                {
                    var1 = Program.s_21[0][0, 0];
                    var0 = var0;
                    {
                        Program.s_22 = var1.F2;
                        {
                            var2 = (long)(1 >> this.F1);
                            var2 = var2;
                            ref bool var3 = ref var1.F2;
                        }

                        var1.F0 = var1.F0--;
                        Program.M32();
                        Program.s_28 = new S1(-32768, (long)Program.M32(), (short)(10 % (uint)(var0 | 1)));
                        var1.F0 = -71;
                        this.F0 = Program.s_18.F2;
                    }

                    var4 = -10;
                    var1 = var1;
                    var1.F2 = false;
                }
                else
                {
                    this.F1 = (ushort)new S1(9317, -3256804299575785770L, -2408).M37(ref Program.s_5[0][0, 0, 0], 8220561327722984727L);
                    this.F0 = this.F0;
                }
            }

            Program.s_29 = new bool[,, ]{{{false, false, true, true, true, true, true, false, true}, {false, false, true, false, true, true, false, true, false}}, {{false, true, true, false, false, false, false, true, false}, {true, false, true, false, false, true, false, false, true}}, {{true, false, true, false, false, false, true, true, true}, {false, true, false, false, true, true, true, true, false}}, {{true, false, true, true, false, true, true, false, false}, {false, false, false, false, false, true, true, true, true}}, {{false, false, true, false, true, false, true, true, false}, {true, false, true, true, false, false, true, true, false}}, {{false, false, true, false, true, false, false, false, true}, {false, true, false, false, true, true, false, false, true}}, {{false, false, false, false, true, false, false, true, false}, {true, false, false, true, false, false, false, false, false}}, {{false, true, true, false, true, false, true, true, false}, {true, true, true, false, true, true, true, false, true}}};
            Program.s_30 %= (uint)(Program.s_25[0][0]++ | 1);
            if (Program.s_27[0].F2)
            {
                this.F2 = 33095;
                this.F0 = Program.s_28.F0;
                for (int var5 = 0; var5 < 2; var5++)
                {
                    this.F2 = Program.s_20;
                }

                var6 = new uint[]{4065272229U, 0U, 0U, 10U, 3377359051U, 1666834386U, 3161704701U, 0U, 803916026U, 10U};
            }
            else
            {
                Program.s_18.F2 &= (short)((-(int)(0 / (long)(Program.s_24.F6 | 1))) << this.F0);
                var7 = !Program.s_16.F2;
                this.F2 = this.F1;
                {
                    var7 = false;
                    Program.s_5[0][0, 0, 0].F0 = (short)(~this.F0);
                    Program.s_22 = !(-40 == Program.M42());
                    Program.M40((short)Program.M33());
                    Program.s_31 = Program.s_16;
                    this.F2 ^= (ushort)Program.s_18.M37(ref Program.s_5[0][0, 0, 0], Program.s_24.F4);
                    new S0(18446744073709551614UL, 89, 0, 127, 9223372036854775806L, 1, 1L, 14971734111227883698UL, 2887081958162872328L).M36(Program.s_28.F1++, ref Program.s_25, new S0((ulong)(1316392310 * (int)Program.M32()), -127, (byte)(26592 * (sbyte)(~Program.s_23.F0--)), 1, (long)new C0(-128, 255, true).M34().M37(ref Program.s_5[0][0, 0, 0], 5468505367102220744L), (byte)(this.F2 & 18446744073709551615UL), (long)(~(this.F2 - -4) - (byte)Program.M41()), 3746924121898707286UL, (long)new S0(16091177525235994156UL, -10, 122, 0, 3611282183152019222L, 0, 10L, 1UL, 7410832395800910001L).M38(new ulong[]{14466330841693274689UL, 0UL, 1UL}, Program.s_5[0][0, 0, 0].F1)));
                }

                var8 = new bool[]{false, true, true};
                this.F2 = this.F2;
            }
        }
        finally
        {
            if (!(this.F0 <= (uint)Program.M42()))
            {
                Program.s_23 = Program.s_21[0][0, 0];
                {
                    var9 = 7;
                    var10 = (int)Program.s_18.M37(ref Program.s_5[0][0, 0, 0], Program.s_1[0].F1);
                    if (Program.s_27[0].F2)
                    {
                        Program.M35(ref Program.s_16.F1);
                        ref C1[] var11 = ref Program.s_32;
                        if (!Program.s_16.F2)
                        {
                            var12 = Program.M40(this.F0);
                            Program.s_18 = new C0(127, 129, false).M34();
                        }
                        else
                        {
                            this.F0 = 29496;
                        }

                        var13 = 10;
                    }
                    else
                    {
                        var10 = var10;
                        Program.s_33 = (ushort)Program.M35(ref Program.s_24.F2);
                        var14 = Program.s_23.F2;
                        this.F1 = (ushort)new S1(8794, 6227307333332751568L, 0).M37(ref Program.s_32[0], 1L);
                    }

                    Program.M41();
                    var9 = 193;
                }

                this.F2 = this.F2;
                var15 = Program.s_14;
                for (int var16 = 0; var16 < 2; var16++)
                {
                    this.F2 = (ushort)(~this.F1);
                    var15 = Program.s_14;
                    var15 = Program.s_14;
                    Program.s_28.M37(ref Program.s_32[0], 9223372036854775807L);
                    this.F1 = this.F2;
